tree
version=v3
num_class=1
num_tree_per_iteration=1
label_index=0
max_feature_idx=1
objective=binary sigmoid:1
feature_names=morn aft
feature_infos=[0:0.875] [0:1]
tree_sizes=335 329 328 328 329 328 330 329 330 330 331 334 330 327 331 329 334 331 330 334 331 333 331 331 332 333 331 330 331 335 330 331 332 332 332 332 332 335 330 332 332 330 331 331 331 330 334 331 332 332 331 331 332 332 333 332 332 332 330 332 332 336 332 332 331 332 333 332 333 332 336 333 331 333 331 333 330 336 333 332 333 331 331 332 333 331 336 332 332 332 332 333 333 333 333 333 333 333 336 333 333 333 334 334 334 334 332 333 333 334 337 334 334 333 334 335 334 334 335 335 335 335 334 334 338 335 335 335 334 334 335 335 333 333 335 335 338 335 336 334 334 334 335 333 336 335 336 335 335 335 337 334 332 336 333 336 336 336 336 335 336 335 337 336 335 336 336 335 335 334 334 336 335 336 335 336 337 336 336 334 336 334 336 336 336 335 336 335 336 336 337 336 336 336 336 339 335 336 336 336 334 333 333 335 336 336 335 335 336 336 338 335 337 335 336 335 335 334 337 336 335 336 336 335 336 336 336 335 336 336 336 335 335 334 336 336 336 339 336 337 336 337 334 336 335 337 334 336 335 335 334 337 335 336 336 335 336 336 336 336 335 336 335 336 336 336 336 335 334 337 336 335 336 335 335 336 337 336 335 336 337 335 335 336 335 336 336 336 335 336 336 336 336 334 336 335 336 339 336 337 335 336 336 337 336 335 336 336 336 336 336 337 336 335 335 335 335 336 336 336 334 336 335 334 334 335 336 336 335 334 336 335 335 336 336 335 336 335 337 336 336 336 336 336 338 335 336 334 335 335 336 335 336 335 334 334 335 336 335 335 336 337 335 335 335 336 336 336 336 336 333 336 334 336 335 336 335 333 336 336 335 336 336 336 336 336 336 335 336 335 335 336 335 335 335 335 336 335 337 334 335 336 336 336 336 336 336 336 335 336 336 335 336 335 335 336 336 335 334 335 335 335 336 336 335 334 336 335 336 336 336 339 335 335 336 336 336 336 336 335 336 336 336 336 335 335 336 334 336 336 335 335 336 334 336 335 336 335 335 333 336 335 336 336 336 335 335 335 336 336 337 335 336 335 336 336 335 334 336 335 337 336 334 336 335 334 336 335 335 336 336 336 335 336 336 335 334 336 336 336

Tree=0
num_leaves=2
num_cat=0
split_feature=0
split_gain=17.1019
threshold=0.24264705882352935
decision_type=2
left_child=-1
right_child=-2
leaf_value=-0.17899231390707973 0.048776054940603289
leaf_weight=9.7247916609048826 4.9870726466178903
leaf_count=39 20
internal_value=-0.101783
internal_weight=0
internal_count=59
shrinkage=1


Tree=1
num_leaves=2
num_cat=0
split_feature=0
split_gain=13.8584
threshold=0.24264705882352935
decision_type=2
left_child=-1
right_child=-2
leaf_value=-0.069884666877568391 0.13520374878610017
leaf_weight=9.6723217964172346 4.9970272183418283
leaf_count=39 20
internal_value=0
internal_weight=0
internal_count=59
shrinkage=0.1


Tree=2
num_leaves=2
num_cat=0
split_feature=0
split_gain=11.3205
threshold=0.24264705882352935
decision_type=2
left_child=-1
right_child=-2
leaf_value=-0.063391017911504505 0.12268609564702947
leaf_weight=9.600566625595091 4.9579268693923959
leaf_count=39 20
internal_value=0
internal_weight=0
internal_count=59
shrinkage=0.1


Tree=3
num_leaves=2
num_cat=0
split_feature=0
split_gain=9.30081
threshold=0.24264705882352935
decision_type=2
left_child=-1
right_child=-2
leaf_value=-0.05758527975212413 0.11216789408518023
leaf_weight=9.5161262154579145 4.8842632770538339
leaf_count=39 20
internal_value=0
internal_weight=0
internal_count=59
shrinkage=0.1


Tree=4
num_leaves=2
num_cat=0
split_feature=0
split_gain=7.67322
threshold=0.24264705882352935
decision_type=2
left_child=-1
right_child=-2
leaf_value=-0.052360657492616362 0.10311133251108345
leaf_weight=9.4240280538797361 4.7869780659675607
leaf_count=39 20
internal_value=0
internal_weight=0
internal_count=59
shrinkage=0.1


Tree=5
num_leaves=2
num_cat=0
split_feature=0
split_gain=6.34921
threshold=0.24264705882352935
decision_type=2
left_child=-1
right_child=-2
leaf_value=-0.04763575022926575 0.09515650619403597
leaf_weight=9.3280710875987989 4.6743521094322213
leaf_count=39 20
internal_value=0
internal_weight=0
internal_count=59
shrinkage=0.1


Tree=6
num_leaves=2
num_cat=0
split_feature=0
split_gain=5.26446
threshold=0.24264705882352935
decision_type=2
left_child=-1
right_child=-2
leaf_value=-0.043347186844443483 0.088054772507515131
leaf_weight=9.2310971170663816 4.5526418089866647
leaf_count=39 20
internal_value=0
internal_weight=0
internal_count=59
shrinkage=0.1


Tree=7
num_leaves=2
num_cat=0
split_feature=0
split_gain=4.37093
threshold=0.24264705882352935
decision_type=2
left_child=-1
right_child=-2
leaf_value=-0.03944449323307845 0.081630207095159765
leaf_weight=9.1351959407329542 4.4265469908714303
leaf_count=39 20
internal_value=0
internal_weight=0
internal_count=59
shrinkage=0.1


Tree=8
num_leaves=2
num_cat=0
split_feature=0
split_gain=3.63196
threshold=0.24264705882352935
decision_type=2
left_child=-1
right_child=-2
leaf_value=-0.035886590298056797 0.075756058437034507
leaf_weight=9.0418738871812803 4.2995652556419381
leaf_count=39 20
internal_value=0
internal_weight=0
internal_count=59
shrinkage=0.1


Tree=9
num_leaves=2
num_cat=0
split_feature=0
split_gain=3.01898
threshold=0.24264705882352935
decision_type=2
left_child=-1
right_child=-2
leaf_value=-0.032639354644638595 0.070339780005060484
leaf_weight=8.9521839916706067 4.1742634773254403
leaf_count=39 20
internal_value=0
internal_weight=0
internal_count=59
shrinkage=0.1


Tree=10
num_leaves=2
num_cat=0
split_feature=0
split_gain=2.50945
threshold=0.24264705882352935
decision_type=2
left_child=-1
right_child=-2
leaf_value=-0.029673795567633929 0.065313154996259323
leaf_weight=8.8668282777070981 4.0524849295616159
leaf_count=39 20
internal_value=0
internal_weight=0
internal_count=59
shrinkage=0.1


Tree=11
num_leaves=2
num_cat=0
split_feature=0
split_gain=2.14615
threshold=1.0000000180025095e-35
decision_type=2
left_child=-1
right_child=-2
leaf_value=-0.051279787630073397 0.032945135509947196
leaf_weight=4.9563396871089935 7.7654153257608414
leaf_count=22 37
internal_value=0
internal_weight=0
internal_count=59
shrinkage=0.1


Tree=12
num_leaves=2
num_cat=0
split_feature=0
split_gain=1.8907
threshold=0.24264705882352935
decision_type=2
left_child=-1
right_child=-2
leaf_value=-0.025665600168937742 0.058247051025580247
leaf_weight=8.7430251985788328 3.8753208518028268
leaf_count=39 20
internal_value=0
internal_weight=0
internal_count=59
shrinkage=0.1


Tree=13
num_leaves=2
num_cat=0
split_feature=0
split_gain=1.61186
threshold=0.10101010101010101
decision_type=2
left_child=-1
right_child=-2
leaf_value=-0.036073726689275894 0.0359266814233693
leaf_weight=6.186290830373764 6.251094251871109
leaf_count=28 31
internal_value=0
internal_weight=0
internal_count=59
shrinkage=0.1


Tree=14
num_leaves=2
num_cat=0
split_feature=0
split_gain=1.38998
threshold=0.24264705882352935
decision_type=2
left_child=-1
right_child=-2
leaf_value=-0.021907516060024397 0.051369003123796733
leaf_weight=8.6200395822525007 3.6997735500335702
leaf_count=39 20
internal_value=0
internal_weight=0
internal_count=59
shrinkage=0.1


Tree=15
num_leaves=2
num_cat=0
split_feature=1
split_gain=1.26156
threshold=0.19375000000000003
decision_type=2
left_child=-1
right_child=-2
leaf_value=-0.03227712974695051 0.03214887394034472
leaf_weight=6.0471360087394714 6.1107112765312195
leaf_count=29 30
internal_value=0
internal_weight=0
internal_count=59
shrinkage=0.1


Tree=16
num_leaves=2
num_cat=0
split_feature=0
split_gain=1.22318
threshold=1.0000000180025095e-35
decision_type=2
left_child=-1
right_child=-2
leaf_value=-0.039668820300453787 0.025438901290592255
leaf_weight=4.7253200709819794 7.4112280905246735
leaf_count=22 37
internal_value=0
internal_weight=0
internal_count=59
shrinkage=0.1


Tree=17
num_leaves=2
num_cat=0
split_feature=0
split_gain=1.02096
threshold=0.24264705882352935
decision_type=2
left_child=-1
right_child=-2
leaf_value=-0.018713626304311792 0.045186233677514377
leaf_weight=8.5055037438869459 3.5415223240852365
leaf_count=39 20
internal_value=0
internal_weight=0
internal_count=59
shrinkage=0.1


Tree=18
num_leaves=2
num_cat=0
split_feature=1
split_gain=1.00531
threshold=0.19375000000000003
decision_type=2
left_child=-1
right_child=-2
leaf_value=-0.029184558703204213 0.028938064577058366
leaf_weight=5.910936638712883 5.9929380863904953
leaf_count=29 30
internal_value=0
internal_weight=0
internal_count=59
shrinkage=0.1


Tree=19
num_leaves=2
num_cat=0
split_feature=0
split_gain=0.900795
threshold=1.0000000180025095e-35
decision_type=2
left_child=-1
right_child=-2
leaf_value=-0.03449833012736566 0.021999147937985981
leaf_weight=4.6129304170608521 7.2691388130187988
leaf_count=22 37
internal_value=0
internal_weight=0
internal_count=59
shrinkage=0.1


Tree=20
num_leaves=2
num_cat=0
split_feature=1
split_gain=0.811234
threshold=0.19375000000000003
decision_type=2
left_child=-1
right_child=-2
leaf_value=-0.026415223921802317 0.02602354153517579
leaf_weight=5.8451620191335678 5.9564159363508224
leaf_count=29 30
internal_value=0
internal_weight=0
internal_count=59
shrinkage=0.1


Tree=21
num_leaves=2
num_cat=0
split_feature=0
split_gain=0.729921
threshold=1.0000000180025095e-35
decision_type=2
left_child=-1
right_child=-2
leaf_value=-0.03138288984113026 0.019760059444682284
leaf_weight=4.541546106338501 7.2384660542011261
leaf_count=22 37
internal_value=0
internal_weight=0
internal_count=59
shrinkage=0.1


Tree=22
num_leaves=2
num_cat=0
split_feature=1
split_gain=0.655404
threshold=0.19375000000000003
decision_type=2
left_child=-1
right_child=-2
leaf_value=-0.02391125274233407 0.023417216702076315
leaf_weight=5.7836304903030396 5.9217308014631271
leaf_count=29 30
internal_value=0
internal_weight=0
internal_count=59
shrinkage=0.1


Tree=23
num_leaves=2
num_cat=0
split_feature=0
split_gain=0.60967
threshold=0.10101010101010101
decision_type=2
left_child=-1
right_child=-2
leaf_value=-0.022893343529145068 0.022791827753078676
leaf_weight=5.8225506395101547 5.8619338572025299
leaf_count=28 31
internal_value=0
internal_weight=0
internal_count=59
shrinkage=0.1


Tree=24
num_leaves=2
num_cat=0
split_feature=1
split_gain=0.531259
threshold=0.19375000000000003
decision_type=2
left_child=-1
right_child=-2
leaf_value=-0.021673977146016564 0.021125231225913105
leaf_weight=5.7214736640453339 5.8817223906517029
leaf_count=29 30
internal_value=0
internal_weight=0
internal_count=59
shrinkage=0.1


Tree=25
num_leaves=2
num_cat=0
split_feature=0
split_gain=0.501794
threshold=1.0000000180025095e-35
decision_type=2
left_child=-1
right_child=-2
leaf_value=-0.02645980999656174 0.01637855281903626
leaf_weight=4.4241625368595123 7.1591647267341614
leaf_count=22 37
internal_value=0
internal_weight=0
internal_count=59
shrinkage=0.1


Tree=26
num_leaves=2
num_cat=0
split_feature=1
split_gain=0.430024
threshold=0.19375000000000003
decision_type=2
left_child=-1
right_child=-2
leaf_value=-0.019619840529638506 0.019027865444578788
leaf_weight=5.6682236641645432 5.850750669836998
leaf_count=29 30
internal_value=0
internal_weight=0
internal_count=59
shrinkage=0.1


Tree=27
num_leaves=2
num_cat=0
split_feature=0
split_gain=0.420389
threshold=0.10101010101010101
decision_type=2
left_child=-1
right_child=-2
leaf_value=-0.019250976850898324 0.01898865224555922
leaf_weight=5.708481103181839 5.7917646914720535
leaf_count=28 31
internal_value=0
internal_weight=0
internal_count=59
shrinkage=0.1


Tree=28
num_leaves=2
num_cat=0
split_feature=1
split_gain=0.349283
threshold=0.19375000000000003
decision_type=2
left_child=-1
right_child=-2
leaf_value=-0.017785656884448935 0.01718018818606112
leaf_weight=5.6149957180023193 5.8160040080547333
leaf_count=29 30
internal_value=0
internal_weight=0
internal_count=59
shrinkage=0.1


Tree=29
num_leaves=2
num_cat=0
split_feature=0
split_gain=0.346271
threshold=1.0000000180025095e-35
decision_type=2
left_child=-1
right_child=-2
leaf_value=-0.022305698351442582 0.013602343010081099
leaf_weight=4.3227192461490631 7.0908005684614182
leaf_count=22 37
internal_value=0
internal_weight=0
internal_count=59
shrinkage=0.1


Tree=30
num_leaves=2
num_cat=0
split_feature=0
split_gain=0.29151
threshold=0.10101010101010101
decision_type=2
left_child=-1
right_child=-2
leaf_value=-0.01619751477438228 0.015844615762780796
leaf_weight=5.6171582192182541 5.7413787990808487
leaf_count=28 31
internal_value=0
internal_weight=0
internal_count=59
shrinkage=0.1


Tree=31
num_leaves=2
num_cat=0
split_feature=1
split_gain=0.283773
threshold=0.19375000000000003
decision_type=2
left_child=-1
right_child=-2
leaf_value=-0.016155443137492488 0.015544799143435761
leaf_weight=5.5418876707553864 5.757759615778923
leaf_count=29 30
internal_value=0
internal_weight=0
internal_count=59
shrinkage=0.1


Tree=32
num_leaves=2
num_cat=0
split_feature=1
split_gain=0.293442
threshold=0.12916666666666662
decision_type=2
left_child=-1
right_child=-2
leaf_value=0.020357078873834415 -0.012776329952597906
leaf_weight=4.3497456312179565 6.9338047653436661
leaf_count=23 36
internal_value=0
internal_weight=0
internal_count=59
shrinkage=0.1


Tree=33
num_leaves=2
num_cat=0
split_feature=1
split_gain=0.273854
threshold=0.19375000000000003
decision_type=2
left_child=-1
right_child=-2
leaf_value=-0.015874239943785992 0.015267321917729483
leaf_weight=5.5414692163467407 5.7579949200153351
leaf_count=29 30
internal_value=0
internal_weight=0
internal_count=59
shrinkage=0.1


Tree=34
num_leaves=2
num_cat=0
split_feature=1
split_gain=0.280621
threshold=0.12916666666666662
decision_type=2
left_child=-1
right_child=-2
leaf_value=0.019889548415670727 -0.012506184761189252
leaf_weight=4.3539070934057236 6.9296387881040573
leaf_count=23 36
internal_value=0
internal_weight=0
internal_count=59
shrinkage=0.1


Tree=35
num_leaves=2
num_cat=0
split_feature=1
split_gain=0.264122
threshold=0.19375000000000003
decision_type=2
left_child=-1
right_child=-2
leaf_value=-0.015593264588581658 0.014990614335778139
leaf_weight=5.5407765805721283 5.7582204341888428
leaf_count=29 30
internal_value=0
internal_weight=0
internal_count=59
shrinkage=0.1


Tree=36
num_leaves=2
num_cat=0
split_feature=1
split_gain=0.268587
threshold=0.12916666666666662
decision_type=2
left_child=-1
right_child=-2
leaf_value=0.019441970577331966 -0.012246445473686586
leaf_weight=4.3578834533691406 6.9253813028335571
leaf_count=23 36
internal_value=0
internal_weight=0
internal_count=59
shrinkage=0.1


Tree=37
num_leaves=2
num_cat=0
split_feature=0
split_gain=0.256641
threshold=1.0000000180025095e-35
decision_type=2
left_child=-1
right_child=-2
leaf_value=-0.019387415191572124 0.011713028198382325
leaf_weight=4.2582381665706635 7.0400405377149582
leaf_count=22 37
internal_value=0
internal_weight=0
internal_count=59
shrinkage=0.1


Tree=38
num_leaves=2
num_cat=0
split_feature=1
split_gain=0.25452
threshold=0.19375000000000003
decision_type=2
left_child=-1
right_child=-2
leaf_value=-0.015343946964922861 0.01474421274724274
leaf_weight=5.5167780667543411 5.7331754267215729
leaf_count=29 30
internal_value=0
internal_weight=0
internal_count=59
shrinkage=0.1


Tree=39
num_leaves=2
num_cat=0
split_feature=1
split_gain=0.264752
threshold=0.12916666666666662
decision_type=2
left_child=-1
right_child=-2
leaf_value=0.019338857998109228 -0.012189751204680931
leaf_weight=4.3397511541843414 6.8947658389806747
leaf_count=23 36
internal_value=0
internal_weight=0
internal_count=59
shrinkage=0.1


Tree=40
num_leaves=2
num_cat=0
split_feature=1
split_gain=0.245824
threshold=0.19375000000000003
decision_type=2
left_child=-1
right_child=-2
leaf_value=-0.015082374905399707 0.014488249355504725
leaf_weight=5.5159133225679398 5.7333765178918839
leaf_count=29 30
internal_value=0
internal_weight=0
internal_count=59
shrinkage=0.1


Tree=41
num_leaves=2
num_cat=0
split_feature=1
split_gain=0.253167
threshold=0.12916666666666662
decision_type=2
left_child=-1
right_child=-2
leaf_value=0.018896025059388734 -0.01193034056984609
leaf_weight=4.3436529189348221 6.890382394194603
leaf_count=23 36
internal_value=0
internal_weight=0
internal_count=59
shrinkage=0.1


Tree=42
num_leaves=2
num_cat=0
split_feature=1
split_gain=0.237264
threshold=0.19375000000000003
decision_type=2
left_child=-1
right_child=-2
leaf_value=-0.014820456597935461 0.014231975643139317
leaf_weight=5.5148174166679382 5.733570396900177
leaf_count=29 30
internal_value=0
internal_weight=0
internal_count=59
shrinkage=0.1


Tree=43
num_leaves=2
num_cat=0
split_feature=1
split_gain=0.24231
threshold=0.12916666666666662
decision_type=2
left_child=-1
right_child=-2
leaf_value=0.018472453385685612 -0.011681497592713235
leaf_weight=4.3473782241344452 6.8859428763389587
leaf_count=23 36
internal_value=0
internal_weight=0
internal_count=59
shrinkage=0.1


Tree=44
num_leaves=2
num_cat=0
split_feature=1
split_gain=0.23019
threshold=0.28174603174603174
decision_type=2
left_child=-1
right_child=-2
leaf_value=-0.012175148605915903 0.016814489207352838
leaf_weight=6.5282837748527527 4.7189929187297821
leaf_count=35 24
internal_value=0
internal_weight=0
internal_count=59
shrinkage=0.1


Tree=45
num_leaves=2
num_cat=0
split_feature=1
split_gain=0.225854
threshold=0.12916666666666662
decision_type=2
left_child=-1
right_child=-2
leaf_value=0.01781880036944335 -0.011279125046231948
leaf_weight=4.353113055229187 6.8887971639633179
leaf_count=23 36
internal_value=0
internal_weight=0
internal_count=59
shrinkage=0.1


Tree=46
num_leaves=2
num_cat=0
split_feature=0
split_gain=0.230905
threshold=1.0000000180025095e-35
decision_type=2
left_child=-1
right_child=-2
leaf_value=-0.018448711863301565 0.011115399372487768
leaf_weight=4.236288920044899 7.0190106332302094
leaf_count=22 37
internal_value=0
internal_weight=0
internal_count=59
shrinkage=0.1


Tree=47
num_leaves=2
num_cat=0
split_feature=1
split_gain=0.227329
threshold=0.19375000000000003
decision_type=2
left_child=-1
right_child=-2
leaf_value=-0.01454202989705005 0.013945705146367069
leaf_weight=5.4925128668546677 5.7166129648685455
leaf_count=29 30
internal_value=0
internal_weight=0
internal_count=59
shrinkage=0.1


Tree=48
num_leaves=2
num_cat=0
split_feature=1
split_gain=0.224054
threshold=0.12916666666666662
decision_type=2
left_child=-1
right_child=-2
leaf_value=0.017782671727733065 -0.011260145853874087
leaf_weight=4.3350690603256226 6.8592519164085388
leaf_count=23 36
internal_value=0
internal_weight=0
internal_count=59
shrinkage=0.1


Tree=49
num_leaves=2
num_cat=0
split_feature=1
split_gain=0.218692
threshold=0.19375000000000003
decision_type=2
left_child=-1
right_child=-2
leaf_value=-0.014266692773985385 0.013676706221452015
leaf_weight=5.4907657206058502 5.7167965620756149
leaf_count=29 30
internal_value=0
internal_weight=0
internal_count=59
shrinkage=0.1


Tree=50
num_leaves=2
num_cat=0
split_feature=1
split_gain=0.215239
threshold=0.12916666666666662
decision_type=2
left_child=-1
right_child=-2
leaf_value=0.017418198394717432 -0.011044818225950744
leaf_weight=4.338240846991539 6.8547253459692001
leaf_count=23 36
internal_value=0
internal_weight=0
internal_count=59
shrinkage=0.1


Tree=51
num_leaves=2
num_cat=0
split_feature=1
split_gain=0.21039
threshold=0.19375000000000003
decision_type=2
left_child=-1
right_child=-2
leaf_value=-0.013996904689106119 0.013413110719481775
leaf_weight=5.4889112412929535 5.7169685512781143
leaf_count=29 30
internal_value=0
internal_weight=0
internal_count=59
shrinkage=0.1


Tree=52
num_leaves=2
num_cat=0
split_feature=1
split_gain=0.206827
threshold=0.12916666666666662
decision_type=2
left_child=-1
right_child=-2
leaf_value=0.017063838955549235 -0.010834993478491511
leaf_weight=4.3413196355104446 6.8501724451780319
leaf_count=23 36
internal_value=0
internal_weight=0
internal_count=59
shrinkage=0.1


Tree=53
num_leaves=2
num_cat=0
split_feature=1
split_gain=0.202413
threshold=0.19375000000000003
decision_type=2
left_child=-1
right_child=-2
leaf_value=-0.013732678835212789 0.013154925834371754
leaf_weight=5.4869610220193863 5.7171292006969452
leaf_count=29 30
internal_value=0
internal_weight=0
internal_count=59
shrinkage=0.1


Tree=54
num_leaves=2
num_cat=0
split_feature=0
split_gain=0.20034
threshold=1.0000000180025095e-35
decision_type=2
left_child=-1
right_child=-2
leaf_value=-0.017259841130227032 0.010368078774873883
leaf_weight=4.2043188810348511 6.985592320561409
leaf_count=22 37
internal_value=0
internal_weight=0
internal_count=59
shrinkage=0.1


Tree=55
num_leaves=2
num_cat=0
split_feature=1
split_gain=0.204529
threshold=0.12916666666666662
decision_type=2
left_child=-1
right_child=-2
leaf_value=0.017000135131410476 -0.010798296762880369
leaf_weight=4.3245225995779037 6.8221264481544495
leaf_count=23 36
internal_value=0
internal_weight=0
internal_count=59
shrinkage=0.1


Tree=56
num_leaves=2
num_cat=0
split_feature=1
split_gain=0.195191
threshold=0.19375000000000003
decision_type=2
left_child=-1
right_child=-2
leaf_value=-0.013514076701719377 0.012942766652771474
leaf_weight=5.4646982699632645 5.6943916231393814
leaf_count=29 30
internal_value=0
internal_weight=0
internal_count=59
shrinkage=0.1


Tree=57
num_leaves=2
num_cat=0
split_feature=1
split_gain=0.196184
threshold=0.12916666666666662
decision_type=2
left_child=-1
right_child=-2
leaf_value=0.016639433760775688 -0.010583553642388463
leaf_weight=4.3276332467794418 6.8175534158945084
leaf_count=23 36
internal_value=0
internal_weight=0
internal_count=59
shrinkage=0.1


Tree=58
num_leaves=2
num_cat=0
split_feature=1
split_gain=0.18817
threshold=0.28174603174603174
decision_type=2
left_child=-1
right_child=-2
leaf_value=-0.011066152371283999 0.01524522368145494
leaf_weight=6.4701849669218063 4.6871275007724762
leaf_count=35 24
internal_value=0
internal_weight=0
internal_count=59
shrinkage=0.1


Tree=59
num_leaves=2
num_cat=0
split_feature=1
split_gain=0.183101
threshold=0.12916666666666662
decision_type=2
left_child=-1
right_child=-2
leaf_value=0.016063380269676741 -0.010225524719505177
leaf_weight=4.3325903415679932 6.8195971697568893
leaf_count=23 36
internal_value=0
internal_weight=0
internal_count=59
shrinkage=0.1


Tree=60
num_leaves=2
num_cat=0
split_feature=1
split_gain=0.186988
threshold=0.19375000000000003
decision_type=2
left_child=-1
right_child=-2
leaf_value=-0.013233000611812762 0.012656783824673615
leaf_weight=5.4629712849855423 5.7008726447820663
leaf_count=29 30
internal_value=0
internal_weight=0
internal_count=59
shrinkage=0.1


Tree=61
num_leaves=2
num_cat=0
split_feature=0
split_gain=0.176886
threshold=1.0000000180025095e-35
decision_type=2
left_child=-1
right_child=-2
leaf_value=-0.016271686096736248 0.0097447082268756757
leaf_weight=4.1815054714679718 6.9686203896999359
leaf_count=22 37
internal_value=0
internal_weight=0
internal_count=59
shrinkage=0.1


Tree=62
num_leaves=2
num_cat=0
split_feature=1
split_gain=0.181756
threshold=0.12916666666666662
decision_type=2
left_child=-1
right_child=-2
leaf_value=0.016033428520043917 -0.010208902325087791
leaf_weight=4.3163304775953293 6.7928444892168045
leaf_count=23 36
internal_value=0
internal_weight=0
internal_count=59
shrinkage=0.1


Tree=63
num_leaves=2
num_cat=0
split_feature=1
split_gain=0.179795
threshold=0.19375000000000003
decision_type=2
left_child=-1
right_child=-2
leaf_value=-0.013002671599353401 0.012433511145260418
leaf_weight=5.4414573907852173 5.6792633831501007
leaf_count=29 30
internal_value=0
internal_weight=0
internal_count=59
shrinkage=0.1


Tree=64
num_leaves=2
num_cat=0
split_feature=1
split_gain=0.174921
threshold=0.12916666666666662
decision_type=2
left_child=-1
right_child=-2
leaf_value=0.015720526464203567 -0.010022090495918101
leaf_weight=4.3190028071403503 6.788281038403511
leaf_count=23 36
internal_value=0
internal_weight=0
internal_count=59
shrinkage=0.1


Tree=65
num_leaves=2
num_cat=0
split_feature=1
split_gain=0.172915
threshold=0.19375000000000003
decision_type=2
left_child=-1
right_child=-2
leaf_value=-0.012755221332173146 0.012192093972967765
leaf_weight=5.4391764253377914 5.6793891042470932
leaf_count=29 30
internal_value=0
internal_weight=0
internal_count=59
shrinkage=0.1


Tree=66
num_leaves=2
num_cat=0
split_feature=1
split_gain=0.168358
threshold=0.12916666666666662
decision_type=2
left_child=-1
right_child=-2
leaf_value=0.015414595331656681 -0.0098391184805322485
leaf_weight=4.3216120153665543 6.7837229073047638
leaf_count=23 36
internal_value=0
internal_weight=0
internal_count=59
shrinkage=0.1


Tree=67
num_leaves=2
num_cat=0
split_feature=1
split_gain=0.166332
threshold=0.19375000000000003
decision_type=2
left_child=-1
right_child=-2
leaf_value=-0.012513827521020641 0.011956552399020584
leaf_weight=5.4368545711040497 5.6795058697462082
leaf_count=29 30
internal_value=0
internal_weight=0
internal_count=59
shrinkage=0.1


Tree=68
num_leaves=2
num_cat=0
split_feature=1
split_gain=0.162057
threshold=0.12916666666666662
decision_type=2
left_child=-1
right_child=-2
leaf_value=0.015115518764379915 -0.0096599367136566069
leaf_weight=4.3241589069366455 6.7791745215654373
leaf_count=23 36
internal_value=0
internal_weight=0
internal_count=59
shrinkage=0.1


Tree=69
num_leaves=2
num_cat=0
split_feature=1
split_gain=0.160031
threshold=0.19375000000000003
decision_type=2
left_child=-1
right_child=-2
leaf_value=-0.012278243911389843 0.011726665765837186
leaf_weight=5.4344966262578964 5.6796136051416397
leaf_count=29 30
internal_value=0
internal_weight=0
internal_count=59
shrinkage=0.1


Tree=70
num_leaves=2
num_cat=0
split_feature=0
split_gain=0.157763
threshold=1.0000000180025095e-35
decision_type=2
left_child=-1
right_child=-2
leaf_value=-0.015408328925628434 0.0092187865157454651
leaf_weight=4.1604395657777786 6.9408448934555054
leaf_count=22 37
internal_value=0
internal_weight=0
internal_count=59
shrinkage=0.1


Tree=71
num_leaves=2
num_cat=0
split_feature=1
split_gain=0.160491
threshold=0.12916666666666662
decision_type=2
left_child=-1
right_child=-2
leaf_value=0.015068203346726722 -0.0096322181440308633
leaf_weight=4.3087641149759293 6.7536459714174271
leaf_count=23 36
internal_value=0
internal_weight=0
internal_count=59
shrinkage=0.1


Tree=72
num_leaves=2
num_cat=0
split_feature=1
split_gain=0.154334
threshold=0.19375000000000003
decision_type=2
left_child=-1
right_child=-2
leaf_value=-0.01208122130498062 0.011536258427249788
leaf_weight=5.4141011387109756 5.6589712798595428
leaf_count=29 30
internal_value=0
internal_weight=0
internal_count=59
shrinkage=0.1


Tree=73
num_leaves=2
num_cat=0
split_feature=1
split_gain=0.154166
threshold=0.12916666666666662
decision_type=2
left_child=-1
right_child=-2
leaf_value=0.014760500151739745 -0.0094470012558018172
leaf_weight=4.3113665878772736 6.7491317093372345
leaf_count=23 36
internal_value=0
internal_weight=0
internal_count=59
shrinkage=0.1


Tree=74
num_leaves=2
num_cat=0
split_feature=1
split_gain=0.148817
threshold=0.19375000000000003
decision_type=2
left_child=-1
right_child=-2
leaf_value=-0.01186668206424165 0.011327146434190033
leaf_weight=5.4118444174528122 5.6590637117624283
leaf_count=29 30
internal_value=0
internal_weight=0
internal_count=59
shrinkage=0.1


Tree=75
num_leaves=2
num_cat=0
split_feature=1
split_gain=0.148158
threshold=0.12916666666666662
decision_type=2
left_child=-1
right_child=-2
leaf_value=0.014462591909490877 -0.0092674181313127917
leaf_weight=4.3138824999332428 6.7446377128362656
leaf_count=23 36
internal_value=0
internal_weight=0
internal_count=59
shrinkage=0.1


Tree=76
num_leaves=2
num_cat=0
split_feature=1
split_gain=0.144305
threshold=0.28174603174603174
decision_type=2
left_child=-1
right_child=-2
leaf_value=-0.009745425290286637 0.01338160404821321
leaf_weight=6.409418910741806 4.6592681854963303
leaf_count=35 24
internal_value=0
internal_weight=0
internal_count=59
shrinkage=0.1


Tree=77
num_leaves=2
num_cat=0
split_feature=0
split_gain=0.139474
threshold=1.0000000180025095e-35
decision_type=2
left_child=-1
right_child=-2
leaf_value=-0.014529818739704782 0.0086721337395257118
leaf_weight=4.1400333642959595 6.9238897711038589
leaf_count=22 37
internal_value=0
internal_weight=0
internal_count=59
shrinkage=0.1


Tree=78
num_leaves=2
num_cat=0
split_feature=1
split_gain=0.142517
threshold=0.12916666666666662
decision_type=2
left_child=-1
right_child=-2
leaf_value=0.014206169563721782 -0.0091013692199723804
leaf_weight=4.3010197877883911 6.7261219322681427
leaf_count=23 36
internal_value=0
internal_weight=0
internal_count=59
shrinkage=0.1


Tree=79
num_leaves=2
num_cat=0
split_feature=1
split_gain=0.142858
threshold=0.19375000000000003
decision_type=2
left_child=-1
right_child=-2
leaf_value=-0.011650908848163168 0.011108959806514256
leaf_weight=5.3921317905187607 5.6449234038591385
leaf_count=29 30
internal_value=0
internal_weight=0
internal_count=59
shrinkage=0.1


Tree=80
num_leaves=2
num_cat=0
split_feature=1
split_gain=0.137421
threshold=0.12916666666666662
decision_type=2
left_child=-1
right_child=-2
leaf_value=0.013943447000742732 -0.0089429811110136349
leaf_weight=4.3032218515872955 6.7216777428984642
leaf_count=23 36
internal_value=0
internal_weight=0
internal_count=59
shrinkage=0.1


Tree=81
num_leaves=2
num_cat=0
split_feature=1
split_gain=0.137366
threshold=0.19375000000000003
decision_type=2
left_child=-1
right_child=-2
leaf_value=-0.011428490609518649 0.01089220318556907
leaf_weight=5.3895982950925827 5.6450053453445435
leaf_count=29 30
internal_value=0
internal_weight=0
internal_count=59
shrinkage=0.1


Tree=82
num_leaves=2
num_cat=0
split_feature=1
split_gain=0.132495
threshold=0.12916666666666662
decision_type=2
left_child=-1
right_child=-2
leaf_value=0.013685003293000507 -0.0087869211942037638
leaf_weight=4.30538509786129 6.7172588333487511
leaf_count=23 36
internal_value=0
internal_weight=0
internal_count=59
shrinkage=0.1


Tree=83
num_leaves=2
num_cat=0
split_feature=1
split_gain=0.132131
threshold=0.19375000000000003
decision_type=2
left_child=-1
right_child=-2
leaf_value=-0.011212305913083283 0.010681528985334671
leaf_weight=5.3870628327131271 5.6450802385807037
leaf_count=29 30
internal_value=0
internal_weight=0
internal_count=59
shrinkage=0.1


Tree=84
num_leaves=2
num_cat=0
split_feature=1
split_gain=0.127738
threshold=0.12916666666666662
decision_type=2
left_child=-1
right_child=-2
leaf_value=0.013431051185614204 -0.0086333113537406941
leaf_weight=4.3075082153081894 6.7128670290112495
leaf_count=23 36
internal_value=0
internal_weight=0
internal_count=59
shrinkage=0.1


Tree=85
num_leaves=2
num_cat=0
split_feature=1
split_gain=0.127137
threshold=0.19375000000000003
decision_type=2
left_child=-1
right_child=-2
leaf_value=-0.011001975327749366 0.01047658229686995
leaf_weight=5.3845256790518761 5.6451481729745865
leaf_count=29 30
internal_value=0
internal_weight=0
internal_count=59
shrinkage=0.1


Tree=86
num_leaves=2
num_cat=0
split_feature=0
split_gain=0.124524
threshold=1.0000000180025095e-35
decision_type=2
left_child=-1
right_child=-2
leaf_value=-0.013761496708336061 0.0082091082581448368
leaf_weight=4.1211474016308784 6.8969473540782928
leaf_count=22 37
internal_value=0
internal_weight=0
internal_count=59
shrinkage=0.1


Tree=87
num_leaves=2
num_cat=0
split_feature=1
split_gain=0.126663
threshold=0.12916666666666662
decision_type=2
left_child=-1
right_child=-2
leaf_value=0.01339557245187213 -0.0086124352835036441
leaf_weight=4.2934498935937881 6.6897390782833099
leaf_count=23 36
internal_value=0
internal_weight=0
internal_count=59
shrinkage=0.1


Tree=88
num_leaves=2
num_cat=0
split_feature=1
split_gain=0.125225
threshold=0.15476190476190474
decision_type=2
left_child=-1
right_child=-2
leaf_value=-0.011980443220110853 0.0095069085933869018
leaf_weight=4.868160605430603 6.1242416203022003
leaf_count=26 33
internal_value=0
internal_weight=0
internal_count=59
shrinkage=0.1


Tree=89
num_leaves=2
num_cat=0
split_feature=1
split_gain=0.123991
threshold=0.12916666666666662
decision_type=2
left_child=-1
right_child=-2
leaf_value=0.01325031202557847 -0.0085239425395050618
leaf_weight=4.2946568876504898 6.6874206811189651
leaf_count=23 36
internal_value=0
internal_weight=0
internal_count=59
shrinkage=0.1


Tree=90
num_leaves=2
num_cat=0
split_feature=1
split_gain=0.12266
threshold=0.15476190476190474
decision_type=2
left_child=-1
right_child=-2
leaf_value=-0.011859309659541635 0.0094084027391768011
leaf_weight=4.8667962253093719 6.1243768930435181
leaf_count=26 33
internal_value=0
internal_weight=0
internal_count=59
shrinkage=0.1


Tree=91
num_leaves=2
num_cat=0
split_feature=1
split_gain=0.121393
threshold=0.12916666666666662
decision_type=2
left_child=-1
right_child=-2
leaf_value=0.013107582665183394 -0.0084369960519388998
leaf_weight=4.2958421111106873 6.6850903928279877
leaf_count=23 36
internal_value=0
internal_weight=0
internal_count=59
shrinkage=0.1


Tree=92
num_leaves=2
num_cat=0
split_feature=1
split_gain=0.120152
threshold=0.15476190476190474
decision_type=2
left_child=-1
right_child=-2
leaf_value=-0.011739724252009224 0.0093110626357063107
leaf_weight=4.8654031902551651 6.1245096921920776
leaf_count=26 33
internal_value=0
internal_weight=0
internal_count=59
shrinkage=0.1


Tree=93
num_leaves=2
num_cat=0
split_feature=1
split_gain=0.118865
threshold=0.12916666666666662
decision_type=2
left_child=-1
right_child=-2
leaf_value=0.012967257936586729 -0.0083515278378458215
leaf_weight=4.2970065176486969 6.6827494725584984
leaf_count=23 36
internal_value=0
internal_weight=0
internal_count=59
shrinkage=0.1


Tree=94
num_leaves=2
num_cat=0
split_feature=1
split_gain=0.117702
threshold=0.15476190476190474
decision_type=2
left_child=-1
right_child=-2
leaf_value=-0.011621687093452026 0.0092149094949063766
leaf_weight=4.8639838248491287 6.1246396973729134
leaf_count=26 33
internal_value=0
internal_weight=0
internal_count=59
shrinkage=0.1


Tree=95
num_leaves=2
num_cat=0
split_feature=1
split_gain=0.116404
threshold=0.12916666666666662
decision_type=2
left_child=-1
right_child=-2
leaf_value=0.012829267832180163 -0.0082674594532524195
leaf_weight=4.2981508523225784 6.6803993284702301
leaf_count=23 36
internal_value=0
internal_weight=0
internal_count=59
shrinkage=0.1


Tree=96
num_leaves=2
num_cat=0
split_feature=1
split_gain=0.115308
threshold=0.15476190476190474
decision_type=2
left_child=-1
right_child=-2
leaf_value=-0.011505217353872377 0.0091199785623384908
leaf_weight=4.8625400215387344 6.1247672811150551
leaf_count=26 33
internal_value=0
internal_weight=0
internal_count=59
shrinkage=0.1


Tree=97
num_leaves=2
num_cat=0
split_feature=1
split_gain=0.114009
threshold=0.12916666666666662
decision_type=2
left_child=-1
right_child=-2
leaf_value=0.012693526164750158 -0.0081847499112716361
leaf_weight=4.2992757856845856 6.6780408248305321
leaf_count=23 36
internal_value=0
internal_weight=0
internal_count=59
shrinkage=0.1


Tree=98
num_leaves=2
num_cat=0
split_feature=0
split_gain=0.113243
threshold=1.0000000180025095e-35
decision_type=2
left_child=-1
right_child=-2
leaf_value=-0.013138212086025764 0.0078426864476703346
leaf_weight=4.1105859130620956 6.8753793835639954
leaf_count=22 37
internal_value=0
internal_weight=0
internal_count=59
shrinkage=0.1


Tree=99
num_leaves=2
num_cat=0
split_feature=1
split_gain=0.113991
threshold=0.28174603174603174
decision_type=2
left_child=-1
right_child=-2
leaf_value=-0.0087203628208279618 0.011938122682491618
leaf_weight=6.3335893601179123 4.6188811212778091
leaf_count=35 24
internal_value=0
internal_weight=0
internal_count=59
shrinkage=0.1


Tree=100
num_leaves=2
num_cat=0
split_feature=1
split_gain=0.11002
threshold=0.12916666666666662
decision_type=2
left_child=-1
right_child=-2
leaf_value=0.012487473844305248 -0.0080502398208189795
leaf_weight=4.2871533036231995 6.6609258577227592
leaf_count=23 36
internal_value=0
internal_weight=0
internal_count=59
shrinkage=0.1


Tree=101
num_leaves=2
num_cat=0
split_feature=1
split_gain=0.115089
threshold=0.15476190476190474
decision_type=2
left_child=-1
right_child=-2
leaf_value=-0.011513153646840552 0.009122010154913757
leaf_weight=4.8475835770368576 6.1089512929320335
leaf_count=26 33
internal_value=0
internal_weight=0
internal_count=59
shrinkage=0.1


Tree=102
num_leaves=2
num_cat=0
split_feature=1
split_gain=0.108308
threshold=0.12916666666666662
decision_type=2
left_child=-1
right_child=-2
leaf_value=0.012387657518838817 -0.0079899164584893104
leaf_weight=4.2879750728607178 6.6585742384195328
leaf_count=23 36
internal_value=0
internal_weight=0
internal_count=59
shrinkage=0.1


Tree=103
num_leaves=2
num_cat=0
split_feature=1
split_gain=0.112268
threshold=0.15476190476190474
decision_type=2
left_child=-1
right_child=-2
leaf_value=-0.011374055300376376 0.0090085816391435192
leaf_weight=4.8458289504051208 6.1090983375906944
leaf_count=26 33
internal_value=0
internal_weight=0
internal_count=59
shrinkage=0.1


Tree=104
num_leaves=2
num_cat=0
split_feature=1
split_gain=0.106542
threshold=0.12916666666666662
decision_type=2
left_child=-1
right_child=-2
leaf_value=0.012283836021522438 -0.0079270666364633733
leaf_weight=4.2888295501470566 6.6562119200825691
leaf_count=23 36
internal_value=0
internal_weight=0
internal_count=59
shrinkage=0.1


Tree=105
num_leaves=2
num_cat=0
split_feature=1
split_gain=0.109606
threshold=0.15476190476190474
decision_type=2
left_child=-1
right_child=-2
leaf_value=-0.011241207333215396 0.0089002233473726242
leaf_weight=4.8441010564565659 6.1092377230525017
leaf_count=26 33
internal_value=0
internal_weight=0
internal_count=59
shrinkage=0.1


Tree=106
num_leaves=2
num_cat=0
split_feature=1
split_gain=0.10474
threshold=0.12916666666666662
decision_type=2
left_child=-1
right_child=-2
leaf_value=0.012177067798111219 -0.007862324913512889
leaf_weight=4.2897077649831772 6.6538410112261772
leaf_count=23 36
internal_value=0
internal_weight=0
internal_count=59
shrinkage=0.1


Tree=107
num_leaves=2
num_cat=0
split_feature=1
split_gain=0.107082
threshold=0.15476190476190474
decision_type=2
left_child=-1
right_child=-2
leaf_value=-0.011113766727238981 0.008796244217704462
leaf_weight=4.8423928469419479 6.1093699932098389
leaf_count=26 33
internal_value=0
internal_weight=0
internal_count=59
shrinkage=0.1


Tree=108
num_leaves=2
num_cat=0
split_feature=1
split_gain=0.102917
threshold=0.12916666666666662
decision_type=2
left_child=-1
right_child=-2
leaf_value=0.012068208103008867 -0.0077962279574068441
leaf_weight=4.290602520108223 6.6514627188444138
leaf_count=23 36
internal_value=0
internal_weight=0
internal_count=59
shrinkage=0.1


Tree=109
num_leaves=2
num_cat=0
split_feature=1
split_gain=0.104678
threshold=0.15476190476190474
decision_type=2
left_child=-1
right_child=-2
leaf_value=-0.010991012772099913 0.0086960605076518427
leaf_weight=4.8406986147165298 6.1094964668154716
leaf_count=26 33
internal_value=0
internal_weight=0
internal_count=59
shrinkage=0.1


Tree=110
num_leaves=2
num_cat=0
split_feature=0
split_gain=0.101174
threshold=1.0000000180025095e-35
decision_type=2
left_child=-1
right_child=-2
leaf_value=-0.012445348296034192 0.0074278520615918622
leaf_weight=4.0929234772920609 6.8476638942956924
leaf_count=22 37
internal_value=0
internal_weight=0
internal_count=59
shrinkage=0.1


Tree=111
num_leaves=2
num_cat=0
split_feature=1
split_gain=0.103907
threshold=0.12916666666666662
decision_type=2
left_child=-1
right_child=-2
leaf_value=0.012146104145394215 -0.0078446927738166465
leaf_weight=4.2767754644155502 6.6320119202136993
leaf_count=23 36
internal_value=0
internal_weight=0
internal_count=59
shrinkage=0.1


Tree=112
num_leaves=2
num_cat=0
split_feature=1
split_gain=0.101995
threshold=0.15476190476190474
decision_type=2
left_child=-1
right_child=-2
leaf_value=-0.010867427635030971 0.0085956138567627287
leaf_weight=4.8253806531429291 6.0915469452738762
leaf_count=26 33
internal_value=0
internal_weight=0
internal_count=59
shrinkage=0.1


Tree=113
num_leaves=2
num_cat=0
split_feature=1
split_gain=0.101727
threshold=0.12916666666666662
decision_type=2
left_child=-1
right_child=-2
leaf_value=0.01201521359420684 -0.0077646208374164962
leaf_weight=4.2778462916612625 6.6296052783727646
leaf_count=23 36
internal_value=0
internal_weight=0
internal_count=59
shrinkage=0.1


Tree=114
num_leaves=2
num_cat=0
split_feature=1
split_gain=0.100046
threshold=0.15476190476190474
decision_type=2
left_child=-1
right_child=-2
leaf_value=-0.010765406851863285 0.0085123659072505638
leaf_weight=4.8238396048545837 6.0916505679488182
leaf_count=26 33
internal_value=0
internal_weight=0
internal_count=59
shrinkage=0.1


Tree=115
num_leaves=2
num_cat=0
split_feature=1
split_gain=0.0996179
threshold=0.12916666666666662
decision_type=2
left_child=-1
right_child=-2
leaf_value=0.011887306431587847 -0.0076863805101373668
leaf_weight=4.2788919508457184 6.6271975487470627
leaf_count=23 36
internal_value=0
internal_weight=0
internal_count=59
shrinkage=0.1


Tree=116
num_leaves=2
num_cat=0
split_feature=1
split_gain=0.098127
threshold=0.15476190476190474
decision_type=2
left_child=-1
right_child=-2
leaf_value=-0.010664055118600753 0.0084296276663371455
leaf_weight=4.8222765922546387 6.0917529240250587
leaf_count=26 33
internal_value=0
internal_weight=0
internal_count=59
shrinkage=0.1


Tree=117
num_leaves=2
num_cat=0
split_feature=1
split_gain=0.0975755
threshold=0.12916666666666662
decision_type=2
left_child=-1
right_child=-2
leaf_value=0.011762160100423575 -0.0076098117161389513
leaf_weight=4.279914528131485 6.6247895881533623
leaf_count=23 36
internal_value=0
internal_weight=0
internal_count=59
shrinkage=0.1


Tree=118
num_leaves=2
num_cat=0
split_feature=1
split_gain=0.0962415
threshold=0.15476190476190474
decision_type=2
left_child=-1
right_child=-2
leaf_value=-0.010563500694578528 0.0083475077553822347
leaf_weight=4.8206939697265625 6.0918535888195038
leaf_count=26 33
internal_value=0
internal_weight=0
internal_count=59
shrinkage=0.1


Tree=119
num_leaves=2
num_cat=0
split_feature=1
split_gain=0.0955947
threshold=0.12916666666666662
decision_type=2
left_child=-1
right_child=-2
leaf_value=0.011639556465991978 -0.0075347874914050844
leaf_weight=4.2809154540300369 6.6223812624812126
leaf_count=23 36
internal_value=0
internal_weight=0
internal_count=59
shrinkage=0.1


Tree=120
num_leaves=2
num_cat=0
split_feature=1
split_gain=0.0943906
threshold=0.15476190476190474
decision_type=2
left_child=-1
right_child=-2
leaf_value=-0.010463854741944435 0.0082661000678881293
leaf_weight=4.8190938830375671 6.0919528752565384
leaf_count=26 33
internal_value=0
internal_weight=0
internal_count=59
shrinkage=0.1


Tree=121
num_leaves=2
num_cat=0
split_feature=1
split_gain=0.0936717
threshold=0.12916666666666662
decision_type=2
left_child=-1
right_child=-2
leaf_value=0.011519337473209363 -0.0074611991446019883
leaf_weight=4.2818965017795563 6.6199738308787346
leaf_count=23 36
internal_value=0
internal_weight=0
internal_count=59
shrinkage=0.1


Tree=122
num_leaves=2
num_cat=0
split_feature=1
split_gain=0.0925756
threshold=0.15476190476190474
decision_type=2
left_child=-1
right_child=-2
leaf_value=-0.010365194616715383 0.0081854780352827623
leaf_weight=4.8174781054258347 6.092050313949585
leaf_count=26 33
internal_value=0
internal_weight=0
internal_count=59
shrinkage=0.1


Tree=123
num_leaves=2
num_cat=0
split_feature=1
split_gain=0.0918028
threshold=0.12916666666666662
decision_type=2
left_child=-1
right_child=-2
leaf_value=0.011401342474335746 -0.0073889518813211432
leaf_weight=4.282858744263649 6.6175675094127655
leaf_count=23 36
internal_value=0
internal_weight=0
internal_count=59
shrinkage=0.1


Tree=124
num_leaves=2
num_cat=0
split_feature=0
split_gain=0.0931503
threshold=1.0000000180025095e-35
decision_type=2
left_child=-1
right_child=-2
leaf_value=-0.011949389144998488 0.0071440743122970904
leaf_weight=4.0848283246159554 6.8231661468744278
leaf_count=22 37
internal_value=0
internal_weight=0
internal_count=59
shrinkage=0.1


Tree=125
num_leaves=2
num_cat=0
split_feature=1
split_gain=0.0913436
threshold=0.28174603174603174
decision_type=2
left_child=-1
right_child=-2
leaf_value=-0.0078443442660565601 0.010707728370552871
leaf_weight=6.2819250524044037 4.5953903198242188
leaf_count=35 24
internal_value=0
internal_weight=0
internal_count=59
shrinkage=0.1


Tree=126
num_leaves=2
num_cat=0
split_feature=1
split_gain=0.0885972
threshold=0.12916666666666662
decision_type=2
left_child=-1
right_child=-2
leaf_value=0.011215486778433096 -0.0072673343905868245
leaf_weight=4.2716008275747299 6.6016377508640289
leaf_count=23 36
internal_value=0
internal_weight=0
internal_count=59
shrinkage=0.1


Tree=127
num_leaves=2
num_cat=0
split_feature=1
split_gain=0.0925536
threshold=0.15476190476190474
decision_type=2
left_child=-1
right_child=-2
leaf_value=-0.010380497929460048 0.0081931631755275004
leaf_weight=4.8032593876123428 6.0773815736174583
leaf_count=26 33
internal_value=0
internal_weight=0
internal_count=59
shrinkage=0.1


Tree=128
num_leaves=2
num_cat=0
split_feature=1
split_gain=0.0872844
threshold=0.12916666666666662
decision_type=2
left_child=-1
right_child=-2
leaf_value=0.011130178123352409 -0.0072155982863382267
leaf_weight=4.2722921520471573 6.599246047437191
leaf_count=23 36
internal_value=0
internal_weight=0
internal_count=59
shrinkage=0.1


Tree=129
num_leaves=2
num_cat=0
split_feature=1
split_gain=0.0903747
threshold=0.15476190476190474
decision_type=2
left_child=-1
right_child=-2
leaf_value=-0.010260411873351919 0.008095249928375077
leaf_weight=4.8013815581798553 6.0774959623813629
leaf_count=26 33
internal_value=0
internal_weight=0
internal_count=59
shrinkage=0.1


Tree=130
num_leaves=2
num_cat=0
split_feature=1
split_gain=0.0859269
threshold=0.12916666666666662
decision_type=2
left_child=-1
right_child=-2
leaf_value=0.011041335342272501 -0.0071615932479091359
leaf_weight=4.2730120122432709 6.5968530252575874
leaf_count=23 36
internal_value=0
internal_weight=0
internal_count=59
shrinkage=0.1


Tree=131
num_leaves=2
num_cat=0
split_feature=1
split_gain=0.0883182
threshold=0.15476190476190474
decision_type=2
left_child=-1
right_child=-2
leaf_value=-0.010145754900982068 0.0080017407444922892
leaf_weight=4.7995338141918182 6.0776043087244034
leaf_count=26 33
internal_value=0
internal_weight=0
internal_count=59
shrinkage=0.1


Tree=132
num_leaves=2
num_cat=0
split_feature=1
split_gain=0.08454
threshold=0.12916666666666662
decision_type=2
left_child=-1
right_child=-2
leaf_value=0.010949871965332356 -0.0071058907845142618
leaf_weight=4.2737528085708618 6.5944594666361809
leaf_count=23 36
internal_value=0
internal_weight=0
internal_count=59
shrinkage=0.1


Tree=133
num_leaves=2
num_cat=0
split_feature=1
split_gain=0.0863675
threshold=0.15476190476190474
decision_type=2
left_child=-1
right_child=-2
leaf_value=-0.01003577482484083 0.007912022515478399
leaf_weight=4.7977100610733032 6.0777073800563812
leaf_count=26 33
internal_value=0
internal_weight=0
internal_count=59
shrinkage=0.1


Tree=134
num_leaves=2
num_cat=0
split_feature=1
split_gain=0.0831357
threshold=0.12916666666666662
decision_type=2
left_child=-1
right_child=-2
leaf_value=0.010856530768052241 -0.0070489589631211394
leaf_weight=4.2745083719491959 6.5920666605234146
leaf_count=23 36
internal_value=0
internal_weight=0
internal_count=59
shrinkage=0.1


Tree=135
num_leaves=2
num_cat=0
split_feature=1
split_gain=0.0845089
threshold=0.15476190476190474
decision_type=2
left_child=-1
right_child=-2
leaf_value=-0.0099298537565314145 0.0078255899901008789
leaf_weight=4.7959050685167313 6.077805757522583
leaf_count=26 33
internal_value=0
internal_weight=0
internal_count=59
shrinkage=0.1


Tree=136
num_leaves=2
num_cat=0
split_feature=0
split_gain=0.0828284
threshold=1.0000000180025095e-35
decision_type=2
left_child=-1
right_child=-2
leaf_value=-0.011290931237312962 0.0067496404996486709
leaf_weight=4.0682646855711937 6.7966844737529755
leaf_count=22 37
internal_value=0
internal_weight=0
internal_count=59
shrinkage=0.1


Tree=137
num_leaves=2
num_cat=0
split_feature=1
split_gain=0.0839765
threshold=0.12916666666666662
decision_type=2
left_child=-1
right_child=-2
leaf_value=0.010927821682834597 -0.0070939250645701271
leaf_weight=4.2617918252944946 6.5741060376167297
leaf_count=23 36
internal_value=0
internal_weight=0
internal_count=59
shrinkage=0.1


Tree=138
num_leaves=2
num_cat=0
split_feature=1
split_gain=0.0823595
threshold=0.15476190476190474
decision_type=2
left_child=-1
right_child=-2
leaf_value=-0.0098181913217056174 0.0077350238380093396
leaf_weight=4.7817129716277122 6.0613331124186516
leaf_count=26 33
internal_value=0
internal_weight=0
internal_count=59
shrinkage=0.1


Tree=139
num_leaves=2
num_cat=0
split_feature=1
split_gain=0.0822785
threshold=0.12916666666666662
decision_type=2
left_child=-1
right_child=-2
leaf_value=0.01081452925915679 -0.0070242161067153299
leaf_weight=4.2627046555280685 6.5716991052031517
leaf_count=23 36
internal_value=0
internal_weight=0
internal_count=59
shrinkage=0.1


Tree=140
num_leaves=2
num_cat=0
split_feature=1
split_gain=0.080865
threshold=0.15476190476190474
decision_type=2
left_child=-1
right_child=-2
leaf_value=-0.0097310194784437625 0.0076638416685189618
leaf_weight=4.7800547778606415 6.061413049697876
leaf_count=26 33
internal_value=0
internal_weight=0
internal_count=59
shrinkage=0.1


Tree=141
num_leaves=2
num_cat=0
split_feature=1
split_gain=0.0806374
threshold=0.12916666666666662
decision_type=2
left_child=-1
right_child=-2
leaf_value=0.010703931400062013 -0.0069561681579226684
leaf_weight=4.2635953426361084 6.569297231733799
leaf_count=23 36
internal_value=0
internal_weight=0
internal_count=59
shrinkage=0.1


Tree=142
num_leaves=2
num_cat=0
split_feature=1
split_gain=0.079391
threshold=0.15476190476190474
decision_type=2
left_child=-1
right_child=-2
leaf_value=-0.0096442597422830897 0.0075929751589305918
leaf_weight=4.7783824428915977 6.0614921227097511
leaf_count=26 33
internal_value=0
internal_weight=0
internal_count=59
shrinkage=0.1


Tree=143
num_leaves=2
num_cat=0
split_feature=1
split_gain=0.0790485
threshold=0.12916666666666662
decision_type=2
left_child=-1
right_child=-2
leaf_value=0.010595792573506777 -0.006889626224811882
leaf_weight=4.2644656151533127 6.566900260746479
leaf_count=23 36
internal_value=0
internal_weight=0
internal_count=59
shrinkage=0.1


Tree=144
num_leaves=2
num_cat=0
split_feature=1
split_gain=0.0779397
threshold=0.15476190476190474
decision_type=2
left_child=-1
right_child=-2
leaf_value=-0.0095580429898067358 0.0075225444785795587
leaf_weight=4.7766980528831482 6.0615700334310532
leaf_count=26 33
internal_value=0
internal_weight=0
internal_count=59
shrinkage=0.1


Tree=145
num_leaves=2
num_cat=0
split_feature=1
split_gain=0.0775079
threshold=0.12916666666666662
decision_type=2
left_child=-1
right_child=-2
leaf_value=0.010489911780368148 -0.0068244637212324212
leaf_weight=4.2653172612190247 6.5645089745521545
leaf_count=23 36
internal_value=0
internal_weight=0
internal_count=59
shrinkage=0.1


Tree=146
num_leaves=2
num_cat=0
split_feature=1
split_gain=0.0765127
threshold=0.15476190476190474
decision_type=2
left_child=-1
right_child=-2
leaf_value=-0.0094724914910450046 0.0074526382717022832
leaf_weight=4.7750033289194107 6.0616469159722328
leaf_count=26 33
internal_value=0
internal_weight=0
internal_count=59
shrinkage=0.1


Tree=147
num_leaves=2
num_cat=0
split_feature=1
split_gain=0.0760121
threshold=0.12916666666666662
decision_type=2
left_child=-1
right_child=-2
leaf_value=0.010386128485992845 -0.0067605771565811476
leaf_weight=4.2661516815423965 6.5621234029531479
leaf_count=23 36
internal_value=0
internal_weight=0
internal_count=59
shrinkage=0.1


Tree=148
num_leaves=2
num_cat=0
split_feature=1
split_gain=0.075111
threshold=0.15476190476190474
decision_type=2
left_child=-1
right_child=-2
leaf_value=-0.0093876756293343813 0.0073833391299009806
leaf_weight=4.7733000218868256 6.0617228299379349
leaf_count=26 33
internal_value=0
internal_weight=0
internal_count=59
shrinkage=0.1


Tree=149
num_leaves=2
num_cat=0
split_feature=1
split_gain=0.0745585
threshold=0.12916666666666662
decision_type=2
left_child=-1
right_child=-2
leaf_value=0.010284307511133902 -0.0066978776723034669
leaf_weight=4.2669697403907776 6.5597435534000397
leaf_count=23 36
internal_value=0
internal_weight=0
internal_count=59
shrinkage=0.1


Tree=150
num_leaves=2
num_cat=0
split_feature=0
split_gain=0.0758656
threshold=1.0000000180025095e-35
decision_type=2
left_child=-1
right_child=-2
leaf_value=-0.01081319167830537 0.0064743349286393572
leaf_weight=4.0602709949016571 6.7731155827641487
leaf_count=22 37
internal_value=0
internal_weight=0
internal_count=59
shrinkage=0.1


Tree=151
num_leaves=2
num_cat=0
split_feature=1
split_gain=0.0738123
threshold=0.28174603174603174
decision_type=2
left_child=-1
right_child=-2
leaf_value=-0.0070857137475120804 0.0096424988178716309
leaf_weight=6.2319300845265388 4.57351054251194
leaf_count=35 24
internal_value=0
internal_weight=0
internal_count=59
shrinkage=0.1


Tree=152
num_leaves=2
num_cat=0
split_feature=1
split_gain=0.071941
threshold=0.12916666666666662
decision_type=2
left_child=-1
right_child=-2
leaf_value=0.010114599557755144 -0.0065864965862424824
leaf_weight=4.2566163390874863 6.54505355656147
leaf_count=23 36
internal_value=0
internal_weight=0
internal_count=59
shrinkage=0.1


Tree=153
num_leaves=2
num_cat=0
split_feature=1
split_gain=0.0752093
threshold=0.15476190476190474
decision_type=2
left_child=-1
right_child=-2
leaf_value=-0.0094081436493386114 0.0073952278658252161
leaf_weight=4.7599554881453514 6.0482431203126907
leaf_count=26 33
internal_value=0
internal_weight=0
internal_count=59
shrinkage=0.1


Tree=154
num_leaves=2
num_cat=0
split_feature=1
split_gain=0.0709421
threshold=0.12916666666666662
decision_type=2
left_child=-1
right_child=-2
leaf_value=0.010042592687222032 -0.00654265066591479
leaf_weight=4.2571915239095688 6.5426918417215347
leaf_count=23 36
internal_value=0
internal_weight=0
internal_count=59
shrinkage=0.1


Tree=155
num_leaves=2
num_cat=0
split_feature=1
split_gain=0.0734996
threshold=0.15476190476190474
decision_type=2
left_child=-1
right_child=-2
leaf_value=-0.0093032493513178129 0.0073098606227800294
leaf_weight=4.7580275535583496 6.0483333691954613
leaf_count=26 33
internal_value=0
internal_weight=0
internal_count=59
shrinkage=0.1


Tree=156
num_leaves=2
num_cat=0
split_feature=1
split_gain=0.0699039
threshold=0.12916666666666662
decision_type=2
left_child=-1
right_child=-2
leaf_value=0.0099672425924160757 -0.0064966541240680563
leaf_weight=4.2577933669090271 6.5403336584568024
leaf_count=23 36
internal_value=0
internal_weight=0
internal_count=59
shrinkage=0.1


Tree=157
num_leaves=2
num_cat=0
split_feature=1
split_gain=0.0718874
threshold=0.15476190476190474
decision_type=2
left_child=-1
right_child=-2
leaf_value=-0.0092032435681108967 0.0072284356657756109
leaf_weight=4.7561320960521698 6.0484184622764587
leaf_count=26 33
internal_value=0
internal_weight=0
internal_count=59
shrinkage=0.1


Tree=158
num_leaves=2
num_cat=0
split_feature=1
split_gain=0.0688386
threshold=0.12916666666666662
decision_type=2
left_child=-1
right_child=-2
leaf_value=0.0098893897107158128 -0.0064490194993412873
leaf_weight=4.2584149837493896 6.5379800051450729
leaf_count=23 36
internal_value=0
internal_weight=0
internal_count=59
shrinkage=0.1


Tree=159
num_leaves=2
num_cat=0
split_feature=1
split_gain=0.0703591
threshold=0.15476190476190474
decision_type=2
left_child=-1
right_child=-2
leaf_value=-0.0091074188067204517 0.0071503969333045359
leaf_weight=4.754262812435627 6.0484994575381279
leaf_count=26 33
internal_value=0
internal_weight=0
internal_count=59
shrinkage=0.1


Tree=160
num_leaves=2
num_cat=0
split_feature=1
split_gain=0.0677567
threshold=0.12916666666666662
decision_type=2
left_child=-1
right_child=-2
leaf_value=0.0098097282525122231 -0.0064001867975992987
leaf_weight=4.2590506076812744 6.5356311872601509
leaf_count=23 36
internal_value=0
internal_weight=0
internal_count=59
shrinkage=0.1


Tree=161
num_leaves=2
num_cat=0
split_feature=1
split_gain=0.0689039
threshold=0.15476190476190474
decision_type=2
left_child=-1
right_child=-2
leaf_value=-0.009015225907433878 0.0070752887696437757
leaf_weight=4.7524154409766197 6.0485768541693687
leaf_count=26 33
internal_value=0
internal_weight=0
internal_count=59
shrinkage=0.1


Tree=162
num_leaves=2
num_cat=0
split_feature=0
split_gain=0.0671883
threshold=1.0000000180025095e-35
decision_type=2
left_child=-1
right_child=-2
leaf_value=-0.01019538159996362 0.0061041058974259481
leaf_weight=4.0448828116059303 6.7481015399098396
leaf_count=22 37
internal_value=0
internal_weight=0
internal_count=59
shrinkage=0.1


Tree=163
num_leaves=2
num_cat=0
split_feature=1
split_gain=0.0684665
threshold=0.12916666666666662
decision_type=2
left_child=-1
right_child=-2
leaf_value=0.0098746335893330605 -0.0064415826919526249
leaf_weight=4.2474291622638702 6.5191530510783195
leaf_count=23 36
internal_value=0
internal_weight=0
internal_count=59
shrinkage=0.1


Tree=164
num_leaves=2
num_cat=0
split_feature=1
split_gain=0.0671637
threshold=0.15476190476190474
decision_type=2
left_child=-1
right_child=-2
leaf_value=-0.0089137268918506839 0.0069932521563736763
leaf_weight=4.739354208111763 6.0335521921515465
leaf_count=26 33
internal_value=0
internal_weight=0
internal_count=59
shrinkage=0.1


Tree=165
num_leaves=2
num_cat=0
split_feature=1
split_gain=0.0671409
threshold=0.12916666666666662
decision_type=2
left_child=-1
right_child=-2
leaf_value=0.0097767411763973813 -0.0063810023208753014
leaf_weight=4.2482068836688995 6.5167993307113647
leaf_count=23 36
internal_value=0
internal_weight=0
internal_count=59
shrinkage=0.1


Tree=166
num_leaves=2
num_cat=0
split_feature=1
split_gain=0.0660036
threshold=0.15476190476190474
decision_type=2
left_child=-1
right_child=-2
leaf_value=-0.0088386063509338381 0.0069319520100038466
leaf_weight=4.7376458495855331 6.0336144790053368
leaf_count=26 33
internal_value=0
internal_weight=0
internal_count=59
shrinkage=0.1


Tree=167
num_leaves=2
num_cat=0
split_feature=1
split_gain=0.0658593
threshold=0.12916666666666662
decision_type=2
left_child=-1
right_child=-2
leaf_value=0.0096811910978320467 -0.006321876468932521
leaf_weight=4.2489656955003738 6.5144536942243576
leaf_count=23 36
internal_value=0
internal_weight=0
internal_count=59
shrinkage=0.1


Tree=168
num_leaves=2
num_cat=0
split_feature=1
split_gain=0.064858
threshold=0.15476190476190474
decision_type=2
left_child=-1
right_child=-2
leaf_value=-0.0087637704374774646 0.0068708763408906722
leaf_weight=4.7359291836619377 6.0336759388446808
leaf_count=26 33
internal_value=0
internal_weight=0
internal_count=59
shrinkage=0.1


Tree=169
num_leaves=2
num_cat=0
split_feature=1
split_gain=0.0646181
threshold=0.12916666666666662
decision_type=2
left_child=-1
right_child=-2
leaf_value=0.0095877691095671118 -0.0062640622116287448
leaf_weight=4.24970743060112 6.5121164843440056
leaf_count=23 36
internal_value=0
internal_weight=0
internal_count=59
shrinkage=0.1


Tree=170
num_leaves=2
num_cat=0
split_feature=1
split_gain=0.0637285
threshold=0.15476190476190474
decision_type=2
left_child=-1
right_child=-2
leaf_value=-0.0086893335036347993 0.0068101243997101754
leaf_weight=4.73420599848032 6.0337367877364159
leaf_count=26 33
internal_value=0
internal_weight=0
internal_count=59
shrinkage=0.1


Tree=171
num_leaves=2
num_cat=0
split_feature=1
split_gain=0.0634139
threshold=0.12916666666666662
decision_type=2
left_child=-1
right_child=-2
leaf_value=0.0094962912107073583 -0.0062074426565643138
leaf_weight=4.2504331022500992 6.5097876563668251
leaf_count=23 36
internal_value=0
internal_weight=0
internal_count=59
shrinkage=0.1


Tree=172
num_leaves=2
num_cat=0
split_feature=1
split_gain=0.0626166
threshold=0.15476190476190474
decision_type=2
left_child=-1
right_child=-2
leaf_value=-0.0086154023033387407 0.0067497902854590707
leaf_weight=4.732477568089962 6.0337968841195107
leaf_count=26 33
internal_value=0
internal_weight=0
internal_count=59
shrinkage=0.1


Tree=173
num_leaves=2
num_cat=0
split_feature=1
split_gain=0.0622444
threshold=0.12916666666666662
decision_type=2
left_child=-1
right_child=-2
leaf_value=0.0094066227828873885 -0.0061519301963596472
leaf_weight=4.2511443346738815 6.5074673667550087
leaf_count=23 36
internal_value=0
internal_weight=0
internal_count=59
shrinkage=0.1


Tree=174
num_leaves=2
num_cat=0
split_feature=1
split_gain=0.0615234
threshold=0.15476190476190474
decision_type=2
left_child=-1
right_child=-2
leaf_value=-0.0085420576066260988 0.0066899354319921722
leaf_weight=4.7307454720139503 6.033856026828289
leaf_count=26 33
internal_value=0
internal_weight=0
internal_count=59
shrinkage=0.1


Tree=175
num_leaves=2
num_cat=0
split_feature=1
split_gain=0.0611071
threshold=0.12916666666666662
decision_type=2
left_child=-1
right_child=-2
leaf_value=0.0093186304236511953 -0.0060974446431292127
leaf_weight=4.2518416792154312 6.5051559060811996
leaf_count=23 36
internal_value=0
internal_weight=0
internal_count=59
shrinkage=0.1


Tree=176
num_leaves=2
num_cat=0
split_feature=0
split_gain=0.0612845
threshold=1.0000000180025095e-35
decision_type=2
left_child=-1
right_child=-2
leaf_value=-0.00974357048055308 0.0058422944012186855
leaf_weight=4.0372024178504944 6.7257228195667267
leaf_count=22 37
internal_value=0
internal_weight=0
internal_count=59
shrinkage=0.1


Tree=177
num_leaves=2
num_cat=0
split_feature=1
split_gain=0.0600801
threshold=0.28174603174603174
decision_type=2
left_child=-1
right_child=-2
leaf_value=-0.0064228319830664377 0.0087131372534511118
leaf_weight=6.1842668578028679 4.5533232837915421
leaf_count=35 24
internal_value=0
internal_weight=0
internal_count=59
shrinkage=0.1


Tree=178
num_leaves=2
num_cat=0
split_feature=1
split_gain=0.0589292
threshold=0.12916666666666662
decision_type=2
left_child=-1
right_child=-2
leaf_value=0.0091613310921944205 -0.0059939082659503616
leaf_weight=4.2424032688140869 6.4917057007551193
leaf_count=23 36
internal_value=0
internal_weight=0
internal_count=59
shrinkage=0.1


Tree=179
num_leaves=2
num_cat=0
split_feature=1
split_gain=0.061708
threshold=0.15476190476190474
decision_type=2
left_child=-1
right_child=-2
leaf_value=-0.008567178586975718 0.0067057211020357735
leaf_weight=4.7183459848165512 6.0215627998113632
leaf_count=26 33
internal_value=0
internal_weight=0
internal_count=59
shrinkage=0.1


Tree=180
num_leaves=2
num_cat=0
split_feature=1
split_gain=0.0581702
threshold=0.12916666666666662
decision_type=2
left_child=-1
right_child=-2
leaf_value=0.0091008868587927356 -0.0059569764524932435
leaf_weight=4.2428798079490662 6.4894138127565384
leaf_count=23 36
internal_value=0
internal_weight=0
internal_count=59
shrinkage=0.1


Tree=181
num_leaves=2
num_cat=0
split_feature=1
split_gain=0.0603499
threshold=0.15476190476190474
decision_type=2
left_child=-1
right_child=-2
leaf_value=-0.008474827988916328 0.0066307660013728209
leaf_weight=4.7164171561598778 6.021634429693222
leaf_count=26 33
internal_value=0
internal_weight=0
internal_count=59
shrinkage=0.1


Tree=182
num_leaves=2
num_cat=0
split_feature=1
split_gain=0.0573755
threshold=0.12916666666666662
decision_type=2
left_child=-1
right_child=-2
leaf_value=0.0090372129433897216 -0.0059179448565739963
leaf_weight=4.2433816939592361 6.4871285110712051
leaf_count=23 36
internal_value=0
internal_weight=0
internal_count=59
shrinkage=0.1


Tree=183
num_leaves=2
num_cat=0
split_feature=1
split_gain=0.0590712
threshold=0.15476190476190474
decision_type=2
left_child=-1
right_child=-2
leaf_value=-0.0083869476037177412 0.0065594102544115273
leaf_weight=4.7145221531391144 6.0217019394040108
leaf_count=26 33
internal_value=0
internal_weight=0
internal_count=59
shrinkage=0.1


Tree=184
num_leaves=2
num_cat=0
split_feature=1
split_gain=0.0565555
threshold=0.12916666666666662
decision_type=2
left_child=-1
right_child=-2
leaf_value=0.0089710795472193166 -0.0058773043526073963
leaf_weight=4.2439027726650238 6.4848503321409225
leaf_count=23 36
internal_value=0
internal_weight=0
internal_count=59
shrinkage=0.1


Tree=185
num_leaves=2
num_cat=0
split_feature=1
split_gain=0.0578607
threshold=0.15476190476190474
decision_type=2
left_child=-1
right_child=-2
leaf_value=-0.008302889746858385 0.0064911310026982737
leaf_weight=4.7126549482345581 6.0217662155628204
leaf_count=26 33
internal_value=0
internal_weight=0
internal_count=59
shrinkage=0.1


Tree=186
num_leaves=2
num_cat=0
split_feature=1
split_gain=0.0557187
threshold=0.12916666666666662
decision_type=2
left_child=-1
right_child=-2
leaf_value=0.0089031311285410319 -0.0058354585395246281
leaf_weight=4.2444379329681396 6.4825798869132996
leaf_count=23 36
internal_value=0
internal_weight=0
internal_count=59
shrinkage=0.1


Tree=187
num_leaves=2
num_cat=0
split_feature=1
split_gain=0.056709
threshold=0.15476190476190474
decision_type=2
left_child=-1
right_child=-2
leaf_value=-0.0082221244967193002 0.0064254984010882867
leaf_weight=4.7108113467693329 6.0218274295330048
leaf_count=26 33
internal_value=0
internal_weight=0
internal_count=59
shrinkage=0.1


Tree=188
num_leaves=2
num_cat=0
split_feature=1
split_gain=0.0548721
threshold=0.12916666666666662
decision_type=2
left_child=-1
right_child=-2
leaf_value=0.0088338933740781719 -0.0057927469889241141
leaf_weight=4.2449831813573837 6.4803175330162048
leaf_count=23 36
internal_value=0
internal_weight=0
internal_count=59
shrinkage=0.1


Tree=189
num_leaves=2
num_cat=0
split_feature=1
split_gain=0.0556086
threshold=0.15476190476190474
decision_type=2
left_child=-1
right_child=-2
leaf_value=-0.0081442045519072408 0.0063621621787413154
leaf_weight=4.7089876160025597 6.0218861177563667
leaf_count=26 33
internal_value=0
internal_weight=0
internal_count=59
shrinkage=0.1


Tree=190
num_leaves=2
num_cat=0
split_feature=0
split_gain=0.0548345
threshold=1.0000000180025095e-35
decision_type=2
left_child=-1
right_child=-2
leaf_value=-0.0092298328795682467 0.005538703810918884
leaf_weight=4.0243017673492432 6.699296846985817
leaf_count=22 37
internal_value=0
internal_weight=0
internal_count=59
shrinkage=0.1


Tree=191
num_leaves=2
num_cat=0
split_feature=1
split_gain=0.0554594
threshold=0.12916666666666662
decision_type=2
left_child=-1
right_child=-2
leaf_value=0.0088922742286830971 -0.0058303743857615322
leaf_weight=4.2343514263629913 6.4652012214064598
leaf_count=23 36
internal_value=0
internal_weight=0
internal_count=59
shrinkage=0.1


Tree=192
num_leaves=2
num_cat=0
split_feature=0
split_gain=0.0542963
threshold=0.13961038961038957
decision_type=2
left_child=-1
right_child=-2
leaf_value=0.0063428523256859673 -0.0079953885468351093
leaf_weight=5.9666161239147186 4.7385236769914627
leaf_count=31 28
internal_value=0
internal_weight=0
internal_count=59
shrinkage=0.1


Tree=193
num_leaves=2
num_cat=0
split_feature=1
split_gain=0.0534629
threshold=0.15476190476190474
decision_type=2
left_child=-1
right_child=-2
leaf_value=-0.0079884952064927361 0.0062353378822082375
leaf_weight=4.7071728557348251 6.0246755555272102
leaf_count=26 33
internal_value=0
internal_weight=0
internal_count=59
shrinkage=0.1


Tree=194
num_leaves=2
num_cat=0
split_feature=1
split_gain=0.0542187
threshold=0.12916666666666662
decision_type=2
left_child=-1
right_child=-2
leaf_value=0.0087802708641004125 -0.0057589861390016581
leaf_weight=4.2455024421215057 6.4791747704148293
leaf_count=23 36
internal_value=0
internal_weight=0
internal_count=59
shrinkage=0.1


Tree=195
num_leaves=2
num_cat=0
split_feature=0
split_gain=0.0534764
threshold=1.0000000180025095e-35
decision_type=2
left_child=-1
right_child=-2
leaf_value=-0.0091177978633475276 0.0054645568835045739
leaf_weight=4.0235299468040466 6.7066938728094101
leaf_count=22 37
internal_value=0
internal_weight=0
internal_count=59
shrinkage=0.1


Tree=196
num_leaves=2
num_cat=0
split_feature=1
split_gain=0.0522034
threshold=0.15476190476190474
decision_type=2
left_child=-1
right_child=-2
leaf_value=-0.0079045023130844463 0.0061676980296733134
leaf_weight=4.695341981947422 6.0110657662153244
leaf_count=26 33
internal_value=0
internal_weight=0
internal_count=59
shrinkage=0.1


Tree=197
num_leaves=2
num_cat=0
split_feature=1
split_gain=0.0545508
threshold=0.12916666666666662
decision_type=2
left_child=-1
right_child=-2
leaf_value=0.0088179060492496325 -0.0057832765446470041
leaf_weight=4.2351416945457458 6.4641852676868439
leaf_count=23 36
internal_value=0
internal_weight=0
internal_count=59
shrinkage=0.1


Tree=198
num_leaves=2
num_cat=0
split_feature=1
split_gain=0.0515627
threshold=0.15476190476190474
decision_type=2
left_child=-1
right_child=-2
leaf_value=-0.0078576455403291893 0.0061292208051522768
leaf_weight=4.6937750428915024 6.0110984668135643
leaf_count=26 33
internal_value=0
internal_weight=0
internal_count=59
shrinkage=0.1


Tree=199
num_leaves=2
num_cat=0
split_feature=1
split_gain=0.0533699
threshold=0.12916666666666662
decision_type=2
left_child=-1
right_child=-2
leaf_value=0.0087203049498794909 -0.0057221762179080473
leaf_weight=4.2359050959348679 6.4619267880916595
leaf_count=23 36
internal_value=0
internal_weight=0
internal_count=59
shrinkage=0.1


Tree=200
num_leaves=2
num_cat=0
split_feature=1
split_gain=0.0508883
threshold=0.15476190476190474
decision_type=2
left_child=-1
right_child=-2
leaf_value=-0.007807932163993038 0.006088481844421758
leaf_weight=4.6921773925423622 6.0111331343650818
leaf_count=26 33
internal_value=0
internal_weight=0
internal_count=59
shrinkage=0.1


Tree=201
num_leaves=2
num_cat=0
split_feature=1
split_gain=0.0522598
threshold=0.12916666666666662
decision_type=2
left_child=-1
right_child=-2
leaf_value=0.008627579034799113 -0.00566416643983466
leaf_weight=4.2366299778223038 6.4596802070736885
leaf_count=23 36
internal_value=0
internal_weight=0
internal_count=59
shrinkage=0.1


Tree=202
num_leaves=2
num_cat=0
split_feature=1
split_gain=0.05019
threshold=0.15476190476190474
decision_type=2
left_child=-1
right_child=-2
leaf_value=-0.0077560429493266029 0.0060460148590448185
leaf_weight=4.6905552446842194 6.011168859899044
leaf_count=26 33
internal_value=0
internal_weight=0
internal_count=59
shrinkage=0.1


Tree=203
num_leaves=2
num_cat=0
split_feature=1
split_gain=0.0512106
threshold=0.12916666666666662
decision_type=2
left_child=-1
right_child=-2
leaf_value=0.0085390215524477463 -0.0056087959958363576
leaf_weight=4.2373218238353729 6.457445316016674
leaf_count=23 36
internal_value=0
internal_weight=0
internal_count=59
shrinkage=0.1


Tree=204
num_leaves=2
num_cat=0
split_feature=1
split_gain=0.0494752
threshold=0.15476190476190474
decision_type=2
left_child=-1
right_child=-2
leaf_value=-0.0077025019875292524 0.0060022558237765216
leaf_weight=4.6889140531420708 6.0112056359648705
leaf_count=26 33
internal_value=0
internal_weight=0
internal_count=59
shrinkage=0.1


Tree=205
num_leaves=2
num_cat=0
split_feature=1
split_gain=0.0502136
threshold=0.12916666666666662
decision_type=2
left_child=-1
right_child=-2
leaf_value=0.0084540406532072586 -0.0055556741810875547
leaf_weight=4.2379854917526245 6.4552217721939087
leaf_count=23 36
internal_value=0
internal_weight=0
internal_count=59
shrinkage=0.1


Tree=206
num_leaves=2
num_cat=0
split_feature=1
split_gain=0.0487504
threshold=0.15476190476190474
decision_type=2
left_child=-1
right_child=-2
leaf_value=-0.007647769807567018 0.0059575587258091887
leaf_weight=4.6872582733631134 6.0112428814172745
leaf_count=26 33
internal_value=0
internal_weight=0
internal_count=59
shrinkage=0.1


Tree=207
num_leaves=2
num_cat=0
split_feature=1
split_gain=0.049262
threshold=0.12916666666666662
decision_type=2
left_child=-1
right_child=-2
leaf_value=0.0083721459038947517 -0.0055044989060952553
leaf_weight=4.2386247962713242 6.4530098438262939
leaf_count=23 36
internal_value=0
internal_weight=0
internal_count=59
shrinkage=0.1


Tree=208
num_leaves=2
num_cat=0
split_feature=1
split_gain=0.0480205
threshold=0.15476190476190474
decision_type=2
left_child=-1
right_child=-2
leaf_value=-0.0075922003320399211 0.0059122183375866274
leaf_weight=4.6855914443731308 6.0112805888056755
leaf_count=26 33
internal_value=0
internal_weight=0
internal_count=59
shrinkage=0.1


Tree=209
num_leaves=2
num_cat=0
split_feature=1
split_gain=0.0483502
threshold=0.12916666666666662
decision_type=2
left_child=-1
right_child=-2
leaf_value=0.0082929352424578242 -0.0054550098294790751
leaf_weight=4.2392425835132599 6.4508089572191238
leaf_count=23 36
internal_value=0
internal_weight=0
internal_count=59
shrinkage=0.1


Tree=210
num_leaves=2
num_cat=0
split_feature=0
split_gain=0.0480279
threshold=1.0000000180025095e-35
decision_type=2
left_child=-1
right_child=-2
leaf_value=-0.0086488733258891677 0.0051908679763029856
leaf_weight=4.0138569474220276 6.681378111243248
leaf_count=22 37
internal_value=0
internal_weight=0
internal_count=59
shrinkage=0.1


Tree=211
num_leaves=2
num_cat=0
split_feature=0
split_gain=0.0530735
threshold=0.13961038961038957
decision_type=2
left_child=-1
right_child=-2
leaf_value=0.0062740769748350425 -0.0079251975177894677
leaf_weight=5.954258531332016 4.7183172330260277
leaf_count=31 28
internal_value=0
internal_weight=0
internal_count=59
shrinkage=0.1


Tree=212
num_leaves=2
num_cat=0
split_feature=0
split_gain=0.0463248
threshold=0.064583333333333312
decision_type=2
left_child=-1
right_child=-2
leaf_value=-0.0075039258281612261 0.0057694423440606268
leaf_weight=4.6528834328055382 6.0459872335195541
leaf_count=25 34
internal_value=0
internal_weight=0
internal_count=59
shrinkage=0.1


Tree=213
num_leaves=2
num_cat=0
split_feature=0
split_gain=0.050209
threshold=0.13961038961038957
decision_type=2
left_child=-1
right_child=-2
leaf_value=0.0061037743145108611 -0.0077046420178076532
leaf_weight=5.9540559947490692 4.7213257327675819
leaf_count=31 28
internal_value=0
internal_weight=0
internal_count=59
shrinkage=0.1


Tree=214
num_leaves=2
num_cat=0
split_feature=1
split_gain=0.0455599
threshold=0.28174603174603174
decision_type=2
left_child=-1
right_child=-2
leaf_value=-0.0056116504147223287 0.0075880346402243757
leaf_weight=6.1539200842380524 4.5469927787780762
leaf_count=35 24
internal_value=0
internal_weight=0
internal_count=59
shrinkage=0.1


Tree=215
num_leaves=2
num_cat=0
split_feature=1
split_gain=0.0473866
threshold=0.12916666666666662
decision_type=2
left_child=-1
right_child=-2
leaf_value=0.008209563713242116 -0.0053966034116144299
leaf_weight=4.2408533543348312 6.4568861499428749
leaf_count=23 36
internal_value=0
internal_weight=0
internal_count=59
shrinkage=0.1


Tree=216
num_leaves=2
num_cat=0
split_feature=1
split_gain=0.0469147
threshold=0.15476190476190474
decision_type=2
left_child=-1
right_child=-2
leaf_value=-0.0075067708556228567 0.0058385911298420787
leaf_weight=4.684741847217083 6.0181578770279884
leaf_count=26 33
internal_value=0
internal_weight=0
internal_count=59
shrinkage=0.1


Tree=217
num_leaves=2
num_cat=0
split_feature=1
split_gain=0.0465815
threshold=0.12916666666666662
decision_type=2
left_child=-1
right_child=-2
leaf_value=0.0081382144255382049 -0.0053522438639045369
leaf_weight=4.24140764772892 6.4546856731176376
leaf_count=23 36
internal_value=0
internal_weight=0
internal_count=59
shrinkage=0.1


Tree=218
num_leaves=2
num_cat=0
split_feature=0
split_gain=0.0466072
threshold=0.064583333333333312
decision_type=2
left_child=-1
right_child=-2
leaf_value=-0.0075272200894707852 0.0057854580480145744
leaf_weight=4.6527771726250648 6.0484276339411736
leaf_count=25 34
internal_value=0
internal_weight=0
internal_count=59
shrinkage=0.1


Tree=219
num_leaves=2
num_cat=0
split_feature=0
split_gain=0.0462007
threshold=0.13961038961038957
decision_type=2
left_child=-1
right_child=-2
leaf_value=0.0058556526475125152 -0.0073884768366172075
leaf_weight=5.9543699100613594 4.7232466712594032
leaf_count=31 28
internal_value=0
internal_weight=0
internal_count=59
shrinkage=0.1


Tree=220
num_leaves=2
num_cat=0
split_feature=1
split_gain=0.045284
threshold=0.15476190476190474
decision_type=2
left_child=-1
right_child=-2
leaf_value=-0.0073773874964012248 0.0057349629035147766
leaf_weight=4.6829134598374367 6.0191331803798676
leaf_count=26 33
internal_value=0
internal_weight=0
internal_count=59
shrinkage=0.1


Tree=221
num_leaves=2
num_cat=0
split_feature=1
split_gain=0.0467215
threshold=0.12916666666666662
decision_type=2
left_child=-1
right_child=-2
leaf_value=0.0081506491976479061 -0.0053604711517945217
leaf_weight=4.2412445992231369 6.4540824890136719
leaf_count=23 36
internal_value=0
internal_weight=0
internal_count=59
shrinkage=0.1


Tree=222
num_leaves=2
num_cat=0
split_feature=0
split_gain=0.0452466
threshold=0.064583333333333312
decision_type=2
left_child=-1
right_child=-2
leaf_value=-0.007419674733745764 0.0056983936804155264
leaf_weight=4.6503496840596199 6.0501098409295082
leaf_count=25 34
internal_value=0
internal_weight=0
internal_count=59
shrinkage=0.1


Tree=223
num_leaves=2
num_cat=0
split_feature=1
split_gain=0.0444747
threshold=0.15476190476190474
decision_type=2
left_child=-1
right_child=-2
leaf_value=-0.0073198100482519948 0.0056899749605544654
leaf_weight=4.6720511615276337 6.005125381052494
leaf_count=26 33
internal_value=0
internal_weight=0
internal_count=59
shrinkage=0.1


Tree=224
num_leaves=2
num_cat=0
split_feature=1
split_gain=0.0468609
threshold=0.12916666666666662
decision_type=2
left_child=-1
right_child=-2
leaf_value=0.0081717535606652247 -0.0053750865005329704
leaf_weight=4.2316664457321167 6.4388554394245148
leaf_count=23 36
internal_value=0
internal_weight=0
internal_count=59
shrinkage=0.1


Tree=225
num_leaves=2
num_cat=0
split_feature=1
split_gain=0.0439919
threshold=0.15476190476190474
decision_type=2
left_child=-1
right_child=-2
leaf_value=-0.0072816970510937249 0.0056584654384605852
leaf_weight=4.6705035790801048 6.0051459148526192
leaf_count=26 33
internal_value=0
internal_weight=0
internal_count=59
shrinkage=0.1


Tree=226
num_leaves=2
num_cat=0
split_feature=1
split_gain=0.0458473
threshold=0.12916666666666662
decision_type=2
left_child=-1
right_child=-2
leaf_value=0.0080814109707958992 -0.0053183563806480519
leaf_weight=4.2323654592037201 6.4366626590490341
leaf_count=23 36
internal_value=0
internal_weight=0
internal_count=59
shrinkage=0.1


Tree=227
num_leaves=2
num_cat=0
split_feature=1
split_gain=0.0434727
threshold=0.15476190476190474
decision_type=2
left_child=-1
right_child=-2
leaf_value=-0.0072403510355895971 0.0056244361515275457
leaf_weight=4.6689255982637405 6.005168043076992
leaf_count=26 33
internal_value=0
internal_weight=0
internal_count=59
shrinkage=0.1


Tree=228
num_leaves=2
num_cat=0
split_feature=1
split_gain=0.0448997
threshold=0.12916666666666662
decision_type=2
left_child=-1
right_child=-2
leaf_value=0.0079960500649807094 -0.0052647853009521592
leaf_weight=4.2330255210399628 6.4344823285937309
leaf_count=23 36
internal_value=0
internal_weight=0
internal_count=59
shrinkage=0.1


Tree=229
num_leaves=2
num_cat=0
split_feature=1
split_gain=0.0429265
threshold=0.15476190476190474
decision_type=2
left_child=-1
right_child=-2
leaf_value=-0.0071964895069258801 0.0055884504246563032
leaf_weight=4.6673237085342407 6.0051911026239395
leaf_count=26 33
internal_value=0
internal_weight=0
internal_count=59
shrinkage=0.1


Tree=230
num_leaves=2
num_cat=0
split_feature=1
split_gain=0.0440081
threshold=0.12916666666666662
decision_type=2
left_child=-1
right_child=-2
leaf_value=0.0079149170620761069 -0.0052138874637139461
leaf_weight=4.2336527109146118 6.4323146566748619
leaf_count=23 36
internal_value=0
internal_weight=0
internal_count=59
shrinkage=0.1


Tree=231
num_leaves=2
num_cat=0
split_feature=1
split_gain=0.042361
threshold=0.15476190476190474
decision_type=2
left_child=-1
right_child=-2
leaf_value=-0.0071507045313800215 0.0055509687913116697
leaf_weight=4.6657037362456322 6.0052152797579765
leaf_count=26 33
internal_value=0
internal_weight=0
internal_count=59
shrinkage=0.1


Tree=232
num_leaves=2
num_cat=0
split_feature=1
split_gain=0.0431643
threshold=0.12916666666666662
decision_type=2
left_child=-1
right_child=-2
leaf_value=0.007837378663625846 -0.0051652613467782355
leaf_weight=4.2342517524957657 6.4301590994000435
leaf_count=23 36
internal_value=0
internal_weight=0
internal_count=59
shrinkage=0.1


Tree=233
num_leaves=2
num_cat=0
split_feature=1
split_gain=0.0417822
threshold=0.15476190476190474
decision_type=2
left_child=-1
right_child=-2
leaf_value=-0.00710346880232885 0.0055123719399023472
leaf_weight=4.6640699878334999 6.0052398890256882
leaf_count=26 33
internal_value=0
internal_weight=0
internal_count=59
shrinkage=0.1


Tree=234
num_leaves=2
num_cat=0
split_feature=1
split_gain=0.0423617
threshold=0.12916666666666662
decision_type=2
left_child=-1
right_child=-2
leaf_value=0.0077629309888152575 -0.0051185790276893871
leaf_weight=4.2348267287015915 6.4280159845948219
leaf_count=23 36
internal_value=0
internal_weight=0
internal_count=59
shrinkage=0.1


Tree=235
num_leaves=2
num_cat=0
split_feature=1
split_gain=0.0411952
threshold=0.15476190476190474
decision_type=2
left_child=-1
right_child=-2
leaf_value=-0.0070551626578844303 0.0054729731474219062
leaf_weight=4.6624263450503349 6.0052648112177849
leaf_count=26 33
internal_value=0
internal_weight=0
internal_count=59
shrinkage=0.1


Tree=236
num_leaves=2
num_cat=0
split_feature=1
split_gain=0.0415947
threshold=0.12916666666666662
decision_type=2
left_child=-1
right_child=-2
leaf_value=0.0076911357877327601 -0.0050735677422718032
leaf_weight=4.2353808283805847 6.4258849620819092
leaf_count=23 36
internal_value=0
internal_weight=0
internal_count=59
shrinkage=0.1


Tree=237
num_leaves=2
num_cat=0
split_feature=0
split_gain=0.0411628
threshold=1.0000000180025095e-35
decision_type=2
left_child=-1
right_child=-2
leaf_value=-0.0080212661617581529 0.0048102300899644426
leaf_weight=4.0005760937929153 6.6654897704720497
leaf_count=22 37
internal_value=0
internal_weight=0
internal_count=59
shrinkage=0.1


Tree=238
num_leaves=2
num_cat=0
split_feature=0
split_gain=0.0460822
threshold=0.13961038961038957
decision_type=2
left_child=-1
right_child=-2
leaf_value=0.0058506162914179526 -0.0073985342153550741
leaf_weight=5.9420392438769341 4.7028752565383911
leaf_count=31 28
internal_value=0
internal_weight=0
internal_count=59
shrinkage=0.1


Tree=239
num_leaves=2
num_cat=0
split_feature=0
split_gain=0.0405215
threshold=0.064583333333333312
decision_type=2
left_child=-1
right_child=-2
leaf_value=-0.0070274893486069277 0.0054038632711786525
leaf_weight=4.6400588899850845 6.0291775315999985
leaf_count=25 34
internal_value=0
internal_weight=0
internal_count=59
shrinkage=0.1


Tree=240
num_leaves=2
num_cat=0
split_feature=0
split_gain=0.0436187
threshold=0.13961038961038957
decision_type=2
left_child=-1
right_child=-2
leaf_value=0.0056935349884896245 -0.0071947692655639512
leaf_weight=5.9414601624011993 4.7056467309594154
leaf_count=31 28
internal_value=0
internal_weight=0
internal_count=59
shrinkage=0.1


Tree=241
num_leaves=2
num_cat=0
split_feature=0
split_gain=0.0390007
threshold=0.064583333333333312
decision_type=2
left_child=-1
right_child=-2
leaf_value=-0.0068985291910657861 0.0052975697209045325
leaf_weight=4.6371001303195953 6.0336312726140022
leaf_count=25 34
internal_value=0
internal_weight=0
internal_count=59
shrinkage=0.1


Tree=242
num_leaves=2
num_cat=0
split_feature=0
split_gain=0.0413382
threshold=0.13961038961038957
decision_type=2
left_child=-1
right_child=-2
leaf_value=0.005544191294725706 -0.007001075729670187
leaf_weight=5.9407029300928116 4.7082810625433922
leaf_count=31 28
internal_value=0
internal_weight=0
internal_count=59
shrinkage=0.1


Tree=243
num_leaves=2
num_cat=0
split_feature=1
split_gain=0.0381117
threshold=0.15476190476190474
decision_type=2
left_child=-1
right_child=-2
leaf_value=-0.0067882710999053828 0.0052603295534024664
leaf_weight=4.6613046005368233 6.0106417834758759
leaf_count=26 33
internal_value=0
internal_weight=0
internal_count=59
shrinkage=0.1


Tree=244
num_leaves=2
num_cat=0
split_feature=1
split_gain=0.0433805
threshold=0.12916666666666662
decision_type=2
left_child=-1
right_child=-2
leaf_value=0.007856415549272076 -0.0051778083276887025
leaf_weight=4.2350672483444214 6.4306217730045319
leaf_count=23 36
internal_value=0
internal_weight=0
internal_count=59
shrinkage=0.1


Tree=245
num_leaves=2
num_cat=0
split_feature=0
split_gain=0.0380835
threshold=0.064583333333333312
decision_type=2
left_child=-1
right_child=-2
leaf_value=-0.0068190509079169266 0.0052333383963458439
leaf_weight=4.6353818625211716 6.0352545902132988
leaf_count=25 34
internal_value=0
internal_weight=0
internal_count=59
shrinkage=0.1


Tree=246
num_leaves=2
num_cat=0
split_feature=0
split_gain=0.0388333
threshold=0.13961038961038957
decision_type=2
left_child=-1
right_child=-2
leaf_value=0.005374185133397485 -0.006784816311610398
leaf_weight=5.9401934593915939 4.7089181393384933
leaf_count=31 28
internal_value=0
internal_weight=0
internal_count=59
shrinkage=0.1


Tree=247
num_leaves=2
num_cat=0
split_feature=1
split_gain=0.0372787
threshold=0.15476190476190474
decision_type=2
left_child=-1
right_child=-2
leaf_value=-0.0067152356258723461 0.0052016414581604678
leaf_weight=4.6599080264568329 6.0114187225699425
leaf_count=26 33
internal_value=0
internal_weight=0
internal_count=59
shrinkage=0.1


Tree=248
num_leaves=2
num_cat=0
split_feature=1
split_gain=0.0430011
threshold=0.12916666666666662
decision_type=2
left_child=-1
right_child=-2
leaf_value=0.0078215468458943532 -0.0051556550553224362
leaf_weight=4.235319972038269 6.4297953993082047
leaf_count=23 36
internal_value=0
internal_weight=0
internal_count=59
shrinkage=0.1


Tree=249
num_leaves=2
num_cat=0
split_feature=1
split_gain=0.037219
threshold=0.15476190476190474
decision_type=2
left_child=-1
right_child=-2
leaf_value=-0.0067112058609931045 0.0051970428056542671
leaf_weight=4.6586286500096321 6.0114206895232201
leaf_count=26 33
internal_value=0
internal_weight=0
internal_count=59
shrinkage=0.1


Tree=250
num_leaves=2
num_cat=0
split_feature=1
split_gain=0.0417898
threshold=0.12916666666666662
decision_type=2
left_child=-1
right_child=-2
leaf_value=0.0077089285212777877 -0.0050842355940920398
leaf_weight=4.23618483543396 6.4276590421795845
leaf_count=23 36
internal_value=0
internal_weight=0
internal_count=59
shrinkage=0.1


Tree=251
num_leaves=2
num_cat=0
split_feature=0
split_gain=0.0376514
threshold=0.064583333333333312
decision_type=2
left_child=-1
right_child=-2
leaf_value=-0.0067805896160647947 0.0052042626633208465
leaf_weight=4.6347057744860649 6.0339941158890724
leaf_count=25 34
internal_value=0
internal_weight=0
internal_count=59
shrinkage=0.1


Tree=252
num_leaves=2
num_cat=0
split_feature=1
split_gain=0.0368498
threshold=0.15476190476190474
decision_type=2
left_child=-1
right_child=-2
leaf_value=-0.006684938772501408 0.0051767303082390298
leaf_weight=4.6488113328814507 5.9984526932239532
leaf_count=26 33
internal_value=0
internal_weight=0
internal_count=59
shrinkage=0.1


Tree=253
num_leaves=2
num_cat=0
split_feature=1
split_gain=0.0416138
threshold=0.12916666666666662
decision_type=2
left_child=-1
right_child=-2
leaf_value=0.0077001258410413142 -0.0050794877336695051
leaf_weight=4.2275892794132233 6.4135060682892799
leaf_count=23 36
internal_value=0
internal_weight=0
internal_count=59
shrinkage=0.1


Tree=254
num_leaves=2
num_cat=0
split_feature=1
split_gain=0.0367173
threshold=0.15476190476190474
decision_type=2
left_child=-1
right_child=-2
leaf_value=-0.0066742867026304709 0.0051670029974515107
leaf_weight=4.6474716365337372 5.9984569400548935
leaf_count=26 33
internal_value=0
internal_weight=0
internal_count=59
shrinkage=0.1


Tree=255
num_leaves=2
num_cat=0
split_feature=1
split_gain=0.0405132
threshold=0.12916666666666662
decision_type=2
left_child=-1
right_child=-2
leaf_value=0.007596097700811032 -0.0050134980279188356
leaf_weight=4.2283855080604553 6.4113857671618462
leaf_count=23 36
internal_value=0
internal_weight=0
internal_count=59
shrinkage=0.1


Tree=256
num_leaves=2
num_cat=0
split_feature=1
split_gain=0.0365055
threshold=0.15476190476190474
decision_type=2
left_child=-1
right_child=-2
leaf_value=-0.0066564392218825532 0.0051516446550718756
leaf_weight=4.6460694596171379 5.9984635785222054
leaf_count=26 33
internal_value=0
internal_weight=0
internal_count=59
shrinkage=0.1


Tree=257
num_leaves=2
num_cat=0
split_feature=1
split_gain=0.0395182
threshold=0.12916666666666662
decision_type=2
left_child=-1
right_child=-2
leaf_value=0.0075008320853022746 -0.0049531236057106225
leaf_weight=4.2291141450405121 6.4092788025736809
leaf_count=23 36
internal_value=0
internal_weight=0
internal_count=59
shrinkage=0.1


Tree=258
num_leaves=2
num_cat=0
split_feature=1
split_gain=0.0362309
threshold=0.15476190476190474
decision_type=2
left_child=-1
right_child=-2
leaf_value=-0.0066328369086886959 0.0051317874229233357
leaf_weight=4.6446175500750542 5.9984723776578903
leaf_count=26 33
internal_value=0
internal_weight=0
internal_count=59
shrinkage=0.1


Tree=259
num_leaves=2
num_cat=0
split_feature=1
split_gain=0.0386102
threshold=0.12916666666666662
decision_type=2
left_child=-1
right_child=-2
leaf_value=0.0074128480601844465 -0.0048974106171568877
leaf_weight=4.2297868281602859 6.4071852639317513
leaf_count=23 36
internal_value=0
internal_weight=0
internal_count=59
shrinkage=0.1


Tree=260
num_leaves=2
num_cat=0
split_feature=1
split_gain=0.0359531
threshold=0.28174603174603174
decision_type=2
left_child=-1
right_child=-2
leaf_value=-0.0050073600432914769 0.0067479234478034604
leaf_weight=6.110665038228035 4.5309442281723022
leaf_count=35 24
internal_value=0
internal_weight=0
internal_count=59
shrinkage=0.1


Tree=261
num_leaves=2
num_cat=0
split_feature=1
split_gain=0.0361351
threshold=0.12916666666666662
decision_type=2
left_child=-1
right_child=-2
leaf_value=0.0071690890670734978 -0.0047385245170478638
leaf_weight=4.2316485643386841 6.4070498049259186
leaf_count=23 36
internal_value=0
internal_weight=0
internal_count=59
shrinkage=0.1


Tree=262
num_leaves=2
num_cat=0
split_feature=1
split_gain=0.037131
threshold=0.15476190476190474
decision_type=2
left_child=-1
right_child=-2
leaf_value=-0.0067166507297719558 0.0051936446425816839
leaf_weight=4.6430197581648827 6.0001577958464622
leaf_count=26 33
internal_value=0
internal_weight=0
internal_count=59
shrinkage=0.1


Tree=263
num_leaves=2
num_cat=0
split_feature=1
split_gain=0.0356832
threshold=0.12916666666666662
decision_type=2
left_child=-1
right_child=-2
leaf_value=0.0071232606043360493 -0.0047101388036289975
leaf_weight=4.2319983690977097 6.4049839526414871
leaf_count=23 36
internal_value=0
internal_weight=0
internal_count=59
shrinkage=0.1


Tree=264
num_leaves=2
num_cat=0
split_feature=1
split_gain=0.0364507
threshold=0.15476190476190474
decision_type=2
left_child=-1
right_child=-2
leaf_value=-0.0066566606174285545 0.0051452754238425422
leaf_weight=4.6412535235285759 6.0001780167222023
leaf_count=26 33
internal_value=0
internal_weight=0
internal_count=59
shrinkage=0.1


Tree=265
num_leaves=2
num_cat=0
split_feature=1
split_gain=0.0352199
threshold=0.12916666666666662
decision_type=2
left_child=-1
right_child=-2
leaf_value=0.0070759921193486539 -0.0046807794808692502
leaf_weight=4.2323590368032455 6.4029301404953003
leaf_count=23 36
internal_value=0
internal_weight=0
internal_count=59
shrinkage=0.1


Tree=266
num_leaves=2
num_cat=0
split_feature=1
split_gain=0.0358031
threshold=0.15476190476190474
decision_type=2
left_child=-1
right_child=-2
leaf_value=-0.0065990534322763542 0.0050988104622650444
leaf_weight=4.6395102143287659 6.0001972168684006
leaf_count=26 33
internal_value=0
internal_weight=0
internal_count=59
shrinkage=0.1


Tree=267
num_leaves=2
num_cat=0
split_feature=1
split_gain=0.0347492
threshold=0.12916666666666662
decision_type=2
left_child=-1
right_child=-2
leaf_value=0.0070276823241354203 -0.0046507046300637992
leaf_weight=4.2327274978160858 6.400888554751873
leaf_count=23 36
internal_value=0
internal_weight=0
internal_count=59
shrinkage=0.1


Tree=268
num_leaves=2
num_cat=0
split_feature=1
split_gain=0.0351839
threshold=0.15476190476190474
decision_type=2
left_child=-1
right_child=-2
leaf_value=-0.0065434770358126105 0.005053983967852913
leaf_weight=4.637787327170372 6.0002155676484108
leaf_count=26 33
internal_value=0
internal_weight=0
internal_count=59
shrinkage=0.1


Tree=269
num_leaves=2
num_cat=0
split_feature=0
split_gain=0.0347394
threshold=0.064583333333333312
decision_type=2
left_child=-1
right_child=-2
leaf_value=-0.0065139689195565231 0.0050155823407472648
leaf_weight=4.6270326748490334 6.0049281045794487
leaf_count=25 34
internal_value=0
internal_weight=0
internal_count=59
shrinkage=0.1


Tree=270
num_leaves=2
num_cat=0
split_feature=0
split_gain=0.0378823
threshold=0.13961038961038957
decision_type=2
left_child=-1
right_child=-2
leaf_value=0.0053095287138845695 -0.0067231594358708735
leaf_weight=5.9270599409937859 4.6842542290687561
leaf_count=31 28
internal_value=0
internal_weight=0
internal_count=59
shrinkage=0.1


Tree=271
num_leaves=2
num_cat=0
split_feature=1
split_gain=0.0350213
threshold=0.12916666666666662
decision_type=2
left_child=-1
right_child=-2
leaf_value=0.0070551381468925414 -0.0046690285758057733
leaf_weight=4.2327606081962585 6.400408498942852
leaf_count=23 36
internal_value=0
internal_weight=0
internal_count=59
shrinkage=0.1


Tree=272
num_leaves=2
num_cat=0
split_feature=0
split_gain=0.0341954
threshold=0.064583333333333312
decision_type=2
left_child=-1
right_child=-2
leaf_value=-0.0064638852692077524 0.0049726920213470508
leaf_weight=4.627125509083271 6.0104607492685318
leaf_count=25 34
internal_value=0
internal_weight=0
internal_count=59
shrinkage=0.1


Tree=273
num_leaves=2
num_cat=0
split_feature=0
split_gain=0.0359161
threshold=0.13961038961038957
decision_type=2
left_child=-1
right_child=-2
leaf_value=0.0051703347031214694 -0.0065422850051788037
leaf_weight=5.928460955619812 4.6886040717363358
leaf_count=31 28
internal_value=0
internal_weight=0
internal_count=59
shrinkage=0.1


Tree=274
num_leaves=2
num_cat=0
split_feature=1
split_gain=0.0333189
threshold=0.15476190476190474
decision_type=2
left_child=-1
right_child=-2
leaf_value=-0.006369546552131811 0.0049166573304742231
leaf_weight=4.6362013965845108 6.0021318942308426
leaf_count=26 33
internal_value=0
internal_weight=0
internal_count=59
shrinkage=0.1


Tree=275
num_leaves=2
num_cat=0
split_feature=1
split_gain=0.0350884
threshold=0.12916666666666662
decision_type=2
left_child=-1
right_child=-2
leaf_value=0.0070617924964817671 -0.0046738652681849032
leaf_weight=4.2327762097120285 6.3996319323778152
leaf_count=23 36
internal_value=0
internal_weight=0
internal_count=59
shrinkage=0.1


Tree=276
num_leaves=2
num_cat=0
split_feature=0
split_gain=0.0333134
threshold=0.064583333333333312
decision_type=2
left_child=-1
right_child=-2
leaf_value=-0.0063819851234444801 0.0049069585257548454
leaf_weight=4.6252945587038994 6.0115459188818932
leaf_count=25 34
internal_value=0
internal_weight=0
internal_count=59
shrinkage=0.1


Tree=277
num_leaves=2
num_cat=0
split_feature=0
split_gain=0.0337709
threshold=0.13961038961038957
decision_type=2
left_child=-1
right_child=-2
leaf_value=0.0050143006344304511 -0.0063432649558672286
leaf_weight=5.9275413826107979 4.6890129148960114
leaf_count=31 28
internal_value=0
internal_weight=0
internal_count=59
shrinkage=0.1


Tree=278
num_leaves=2
num_cat=0
split_feature=1
split_gain=0.032364
threshold=0.15476190476190474
decision_type=2
left_child=-1
right_child=-2
leaf_value=-0.0062793395277370894 0.0048449199470030754
leaf_weight=4.6344995200634003 6.0026429072022438
leaf_count=26 33
internal_value=0
internal_weight=0
internal_count=59
shrinkage=0.1


Tree=279
num_leaves=2
num_cat=0
split_feature=1
split_gain=0.0350506
threshold=0.12916666666666662
decision_type=2
left_child=-1
right_child=-2
leaf_value=0.0070579031195039631 -0.0046718699236309976
leaf_weight=4.2327116131782532 6.3985704332590103
leaf_count=23 36
internal_value=0
internal_weight=0
internal_count=59
shrinkage=0.1


Tree=280
num_leaves=2
num_cat=0
split_feature=0
split_gain=0.0323698
threshold=0.064583333333333312
decision_type=2
left_child=-1
right_child=-2
leaf_value=-0.0062930305271676661 0.0048358756450817874
leaf_weight=4.6233182102441788 6.0124033913016319
leaf_count=25 34
internal_value=0
internal_weight=0
internal_count=59
shrinkage=0.1


Tree=281
num_leaves=2
num_cat=0
split_feature=1
split_gain=0.0319315
threshold=0.15476190476190474
decision_type=2
left_child=-1
right_child=-2
leaf_value=-0.006243609970715395 0.0048172119231032831
leaf_weight=4.6251977980136871 5.9904951080679893
leaf_count=26 33
internal_value=0
internal_weight=0
internal_count=59
shrinkage=0.1


Tree=282
num_leaves=2
num_cat=0
split_feature=1
split_gain=0.0350296
threshold=0.12916666666666662
decision_type=2
left_child=-1
right_child=-2
leaf_value=0.0070622608020676648 -0.0046756411011695583
leaf_weight=4.2245772331953049 6.385298915207386
leaf_count=23 36
internal_value=0
internal_weight=0
internal_count=59
shrinkage=0.1


Tree=283
num_leaves=2
num_cat=0
split_feature=1
split_gain=0.0317495
threshold=0.15476190476190474
decision_type=2
left_child=-1
right_child=-2
leaf_value=-0.0062271373692915381 0.0048030503772747398
leaf_weight=4.6238063275814056 5.9904990121722221
leaf_count=26 33
internal_value=0
internal_weight=0
internal_count=59
shrinkage=0.1


Tree=284
num_leaves=2
num_cat=0
split_feature=1
split_gain=0.0342074
threshold=0.12916666666666662
decision_type=2
left_child=-1
right_child=-2
leaf_value=0.006977688215086055 -0.0046218337689130171
leaf_weight=4.2252185046672821 6.3832867294549942
leaf_count=23 36
internal_value=0
internal_weight=0
internal_count=59
shrinkage=0.1


Tree=285
num_leaves=2
num_cat=0
split_feature=1
split_gain=0.0315158
threshold=0.15476190476190474
decision_type=2
left_child=-1
right_child=-2
leaf_value=-0.0062055594151344514 0.0047849260546696751
leaf_weight=4.6223735064268112 5.9905040264129639
leaf_count=26 33
internal_value=0
internal_weight=0
internal_count=59
shrinkage=0.1


Tree=286
num_leaves=2
num_cat=0
split_feature=1
split_gain=0.0334558
threshold=0.12916666666666662
decision_type=2
left_child=-1
right_child=-2
leaf_value=0.0068994941280785859 -0.0045721344070550488
leaf_weight=4.2258109301328659 6.3812873214483261
leaf_count=23 36
internal_value=0
internal_weight=0
internal_count=59
shrinkage=0.1


Tree=287
num_leaves=2
num_cat=0
split_feature=1
split_gain=0.0312417
threshold=0.15476190476190474
decision_type=2
left_child=-1
right_child=-2
leaf_value=-0.0061799098660850179 0.0047636406545523615
leaf_weight=4.6209084391593933 5.9905097186565399
leaf_count=26 33
internal_value=0
internal_weight=0
internal_count=59
shrinkage=0.1


Tree=288
num_leaves=2
num_cat=0
split_feature=1
split_gain=0.0327632
threshold=0.12916666666666662
decision_type=2
left_child=-1
right_child=-2
leaf_value=0.006826648013019943 -0.0045258658430930654
leaf_weight=4.2263627052307129 6.3793006390333176
leaf_count=23 36
internal_value=0
internal_weight=0
internal_count=59
shrinkage=0.1


Tree=289
num_leaves=2
num_cat=0
split_feature=1
split_gain=0.0309361
threshold=0.15476190476190474
decision_type=2
left_child=-1
right_child=-2
leaf_value=-0.0061510310507990624 0.0047398597127286954
leaf_weight=4.6194188967347145 5.9905160889029503
leaf_count=26 33
internal_value=0
internal_weight=0
internal_count=59
shrinkage=0.1


Tree=290
num_leaves=2
num_cat=0
split_feature=1
split_gain=0.0321195
threshold=0.12916666666666662
decision_type=2
left_child=-1
right_child=-2
leaf_value=0.0067582555901370724 -0.0044824633167386786
leaf_weight=4.2268806248903275 6.3773269951343536
leaf_count=23 36
internal_value=0
internal_weight=0
internal_count=59
shrinkage=0.1


Tree=291
num_leaves=2
num_cat=0
split_feature=1
split_gain=0.0306065
threshold=0.15476190476190474
decision_type=2
left_child=-1
right_child=-2
leaf_value=-0.0061195994417506637 0.0047141172701712173
leaf_weight=4.6179107204079628 5.9905228614807129
leaf_count=26 33
internal_value=0
internal_weight=0
internal_count=59
shrinkage=0.1


Tree=292
num_leaves=2
num_cat=0
split_feature=1
split_gain=0.0315169
threshold=0.12916666666666662
decision_type=2
left_child=-1
right_child=-2
leaf_value=0.0066936131902831835 -0.0044414637496181034
leaf_weight=4.2273698002099991 6.3753659799695015
